solver_type L2R_L2LOSS_SVC_DUAL
nr_class 6
label 1 2 3 4 5 6
nr_feature 17600
bias -1
w
-0.01670637593948871 0.002403277733389589 0.005471485209863874 0.001747028538680575 -0.002278444875185036 0.007225934078994571 
-0.008445497033251859 -0.006100790193469584 0.01276586915540414 -0.001786680543762422 -0.00469850909045788 0.0002145247292369708 
-0.01283950590526148 -0.005602402385401194 0.01317963340827432 0.009317631374986177 0.0009563014288888847 -0.008677599275887881 
-0.0141003683334769 -0.008534290190761804 0.01813433054709117 0.00605083536846895 -0.003012557148308327 0.0002889021202005359 
-0.02845401897467869 -0.01870977902373337 0.01432019617489874 -0.001754342486529592 0.009762796224626762 0.03186219168290569 
-0.01248087455926125 0.0184363687421285 0.003617869091330623 -0.008021556640976613 -0.005466355382066758 0.003455615452235229 
-0.01359745893936918 0.01609340158243738 0.005102356077246701 0.009698638753235645 -0.00661336982725348 -0.01228926790957086 
-0.007187119075660083 -0.003086170962301852 0.007981718082474895 -0.01331568765468678 -0.00328153078470873 0.0101823252398481 
-0.005036525862274528 0.01822757611859422 -0.0007192134368800406 -0.01335034627482257 -0.001283911298222043 0.003916943185226193 
-0.003652740202627225 -0.004405885898038155 0.02875454766953767 -0.01979333861670935 -0.005892820109553874 -0.004678851846362524 
-0.01146842733193607 -0.002134068082550094 0.01030672186234846 0.002501861086237805 -0.01076199007736829 0.009193165895853285 
-0.004850278487141721 -0.002293693152220477 0.007023167430242568 0.004994930117899526 -0.01248783459570236 0.00858865188484278 
-0.02457640707021684 0.02101052370802944 -0.001130586674188694 0.007627976965006884 0.0085945049611405 -0.009911803082927311 
-0.007746721990438791 0.008513371965072238 0.01327476835365953 -0.005871718526924433 -0.007651302439460419 -0.0002426551883342656 
-0.01747785303880778 0.01423296809845726 0.008608589004083296 0.004496451166883164 -0.005658015785436934 -0.007309645126671612 
-0.02965085749611143 0.001630888315849927 0.01485173386787961 -0.01246128329611386 0.02694763183795419 -0.002068184025902503 
-0.02796109760951437 -0.007210369726649196 0.001925854062470123 0.004600609315746882 0.02316755605336498 0.007736255823745516 
-0.02077456707148414 -0.01884472538729993 0.03555782976290491 -0.0133652944972305 0.001483013110511222 0.00268042338400058 
-0.02620523486719749 -0.02582268285369825 0.0367176309380515 0.005665060578408869 -0.00737665806126849 0.010127175912261 
-0.03216818843857262 3.604879716137491e-06 0.004387308584981211 -0.005516090713194656 0.01135140326601501 0.01107281659209034 
-0.0314297921137676 0.009245813591051359 -0.001836169243751477 -0.002561968783428754 -0.002745923387138847 0.04346113087014927 
-0.02597294189446352 0.02307081122429609 0.0004210042537347884 -0.01693005460674808 -0.00999718597248553 0.02858583109201073 
-0.02360406478979973 -0.00457030908217658 0.002830854265922512 0.008972452040582116 -0.01493305296990594 0.02413361330997797 
0.01991730326889691 -0.009256851659440308 0.003345153393221586 0.003031941864742611 -0.01166815803369044 -0.003850823748927118 
-0.0004538866044149749 0.002758510876096246 0.01405387430912829 -0.003117363148761315 -0.01703108465020577 0.001153991264214185 
-0.02674218277695445 0.002811568514045975 0.03119951087384486 -0.01778300686835041 -0.01756961893987152 0.01406777017540669 
-0.02191617156574322 0.01097828789032312 0.01402881523328172 0.002705829934184433 -0.01432044129173278 0.007730759063357578 
-0.001690593001022273 0.01497066341333854 0.0009890560565873033 -0.007735202610700404 -0.01034584517165332 -0.0001736438938410618 
-0.01771001526945995 0.02438332400891331 -0.009369907850799594 0.004918019488748489 0.01042291190527176 -0.01211583049758564 
-0.003558756022260154 0.004945282479503995 0.001287280484056071 -0.004175390169582795 0.01384018624454918 -0.00286669373561485 
-0.0302603115874008 0.02814681976121925 -0.01740576856724255 0.02744728258478413 -0.007391530189662243 -0.001976316173638725 
-0.03543690185018354 0.01033312111548737 0.01129454220405303 0.001469079132015045 0.007260155235676208 0.004185509225059372 
-0.01812054747829799 -0.01306345531857671 0.02314058466489047 -0.01586230357478478 -0.007290779474270582 0.0332207004161513 
-0.01502731519698266 -0.00681277083840509 0.01497778739666744 -0.0113059519005094 0.0009378219929312172 0.01372805797559391 
-0.03236953254234378 0.004908725441879751 0.02119378044837763 -0.01307638589192692 0.007166318048629974 0.0007774081897648163 
-0.02751435579224771 0.002513996224136674 0.004185564127923504 -0.01432472061388575 0.001995119440117481 0.02545226569435 
0.008496411977551755 0.02641613752578121 -0.004452006524909895 -0.01841136252571332 -0.02011594939698499 0.02270716607776489 
0.006838491250842115 0.01297640263267742 -0.005277230640759974 -0.003314677044505821 -0.009528417054322013 -0.002574008915946192 
0.01079429685449869 0.009380594420720626 -0.0269840447517872 0.03174923856844092 -0.008398236860981997 -0.0159212819582857 
-0.02851797916802024 -0.007944386800407519 -0.01284140800776599 0.02894383386512624 -0.001785938020051607 0.02345352353974658 
-0.01302843570525358 0.02493912950833158 0.01104410733160518 -0.0170419977821875 0.01177490928840513 -0.0135896683237515 
-0.01981639755907164 0.002242427092870465 0.01818994562239299 -0.001339851636964944 -0.009364984291163536 0.007121221906345023 
-0.007886348887786982 0.02191123978544116 0.001229199074162086 0.004127813726978546 -0.009411740170431719 -0.01078245615750703 
0.0007449511600879332 0.03560969695866883 -0.007133522479643883 -0.006710185671491499 -0.006627276347301079 -0.01967776468362913 
-0.0176671033397761 0.03344083502633952 -0.02189230559363683 -0.006126503401348989 0.02418638478282061 -0.0234412223594564 
-0.002539206066421622 0.01324154070125052 -0.007154790594711052 1.273446027211891e-05 0.005866817536481042 -0.007266946191603483 
-0.004415317315755504 -0.003774437371582505 -0.02806492117512221 0.04067075644305821 0.003443279125156339 -0.006348783088925537 
0.01649617952547212 0.01127175290200333 -0.005435314529788149 0.001299270656082994 -0.006890140719850736 -0.006851665529840575 
-0.01566844404926065 0.0006686341618049303 -0.003043891633135854 0.01495436404492463 0.01820526647053808 -0.01109783172808032 
-0.007062627244826387 0.005274170538794734 -0.009541566422338587 0.0158410550068037 0.005469676415214884 -0.007681150375800546 
-0.02271089810805386 0.001685156593477368 -0.02109849910404334 -0.0007265663777856337 0.02587154729419282 0.02006509186749425 
-0.02618724962202661 0.02965840621034821 -0.01415054340961316 -0.0201070356190122 -0.02067061609995827 0.0435750958940142 
0.03993145310294613 0.01164407660026699 -0.008368497134423317 -0.01947451155504035 -0.002103900993264332 0.002288283656430788 
0.02656386606007441 0.01266980420006652 -0.01601973483111797 -0.01160817774130632 -0.01408623883014706 0.003546135258749586 
0.004150132151707924 0.01729491171100534 -0.02189988641005227 0.01564035136424661 -0.01081265131656473 -0.01141875415966387 
-0.00351373576489803 -0.003585667886852978 -0.007304195168393992 0.01491491784873761 -0.01042302227733076 0.0007846638409607912 
-0.009919863810928374 -0.005718747300241219 0.005901433746523313 0.0130225834096961 0.004585099096012506 0.006268992122011974 
-0.000161939515973541 0.005162718832965212 -0.001736656512207692 0.01324638730164585 0.002581390795808664 -0.01515512555275118 
0.005881774800110443 0.02950063894153167 -0.0007465464748388007 -0.008968218563415828 0.001417184513108253 -0.01883368022594609 
0.03314107437972147 0.01807640782945304 -0.01387108838085767 -0.01863888715678516 -0.01994184734533928 -0.00815014733256904 
-0.03212665691117884 0.05913209285215729 -0.02812239259794341 -0.01029633330191412 -0.001243782717161727 -0.003813947481853841 
0.003372319965136944 0.01777117542332295 -0.004030811263867063 -0.00374868304920257 0.006911770250349723 -0.01710840086488999 
-0.0105428219640872 0.02926096233216249 -0.006832991719120673 0.001512264516362941 -0.0008085023564650167 -0.008407450610223278 
-0.009011202154570205 0.01239020793490428 -0.01063862112357782 -0.005225021581339917 0.02411746565134528 -0.01173734612546537 
0.005770909215603886 0.004961457665579626 -0.0226657938566476 0.03161122783055985 -0.01523476127385675 -0.01428540283483439 
-0.01781778155980716 0.02073738716258674 -0.01932171879306361 0.01471479825634345 -0.0089679422159894 0.007023102588463444 
-0.02588101245160373 0.04165473949007971 -0.009322174309365256 -0.002424415940660726 -0.003737234347214625 0.001296225950152221 
-0.006338856645527291 0.01116716285214883 -0.005990137285683489 -0.01533473506631732 -0.01347775803344084 0.01808925534903265 
0.06027350652943806 0.005931585372987169 -0.01297583265362892 -0.03075766841910664 -0.01227086128400527 0.005749355653454779 
0.01230533785933407 0.005736315828355809 -0.008264140447551903 -0.01052673616353614 -0.00995393282030156 0.01671758775521271 
-0.01997857976181408 0.0004990341105244079 -0.004867496570630291 0.007529450759556499 0.02350990655687712 -0.003562062441513644 
-0.02949272059505123 -0.01530137016716502 -0.007580004044071089 0.0122150365297282 0.01344600760918028 0.02106719392083041 
-0.0405437028239336 -0.009997930096928129 0.02100230688760215 -0.006288190550007247 0.02782955038690651 0.02240403305168367 
-0.01920697097283598 0.002835480491932185 0.01087479904023664 -0.00138900016444269 0.006426058799686755 0.001881486741393421 
0.0257982318476696 0.01171818174196586 -0.002928830802810103 -0.006278380119785975 -0.01429654195732389 -0.01306321085516689 
-0.007828486208339007 0.08030940102583423 -0.02526097157259504 -0.02489578458471638 -0.03010977790332046 -0.01647611104542012 
0.02804176942610471 0.02595354119071952 -0.02633766150293295 -0.007730366617039349 0.00403458071788364 -0.01927590423153367 
0.01343855920848696 -0.007555929531995285 -0.00958248820155147 -0.001875340302079056 -0.008660184676247951 0.0156046243322674 
0.00639761404516978 -0.003663773055752773 -0.003812375809611572 0.004310592614495954 -0.006145090619978764 0.005663803352088759 
0.01531883774934709 0.007314091571153998 -0.0004854642240030542 -0.0116521521028285 -0.002917477835365469 -1.811289950358111e-05 
-0.0253001259736139 0.038368557080166 -0.002974007340350452 -0.003375754491221142 -0.01512308824462537 0.01331507271778423 
-0.0008186993948004142 0.02034206055168921 0.002355351592729849 -0.01298042945809932 -0.007632432566307434 -0.00106858597167739 
-0.0071931571856107 0.03943025442126097 -0.002834711710404477 -0.01467478427931007 -0.01354805572993399 -0.01087861610289947 
0.0579187052066988 -0.001153087964443845 0.00171201771091781 -0.03795662309822571 -0.03488936071863549 0.005671978858134421 
-0.009876049618575728 0.04599525013802239 -0.01018356905760701 -0.008065560869752108 -0.01985892569701777 0.003583745712303331 
-0.01436223646214484 0.005026600519423924 -0.001233632039799769 0.000187199150565704 0.001265683023798779 0.008868736259555192 
-0.01647319318656583 -9.0131954557837e-05 -0.002083993028217579 0.02348402427163251 -0.006290797133440767 -0.01076176887299072 
-0.005406838520195182 0.00915628972705594 -0.01019197258800584 -0.01294910344593555 0.003456504100068469 0.02501574091089452 
0.0227163747114321 -0.02344100638359232 -0.007247454291150039 -0.007132232343133556 0.008529523371009958 0.01400935220926335 
0.01016198539137511 0.001090652378146933 0.00141696995196084 -0.008351536632685091 6.469984980742254e-05 -0.01144126791951645 
-0.01120612833145257 0.01124848311834847 -0.006008377438754536 0.00634650128272273 -0.01717738643356674 0.01568573215126027 
0.007437115126902405 0.04023055866075689 -0.01880640873361607 -0.008827860120708093 -0.02043814958631383 -0.02657606909184409 
0.005684636386089129 -0.00104436786185727 -0.007205725073520484 -0.003868733241917508 0.007045770924669566 -0.001881870353136912 
0.01883756327461384 -0.005522348811051941 -0.007792112574432505 -0.009125549410031982 -0.006443709159098828 0.007808783854734721 
-0.02255724286069505 -0.001319744194147731 0.005990514233980952 0.02192025362735569 -0.01894305470901714 0.01200683947932063 
0.008225823427209523 0.003547097717221703 0.003472342446813096 -0.0002090000686414183 -0.01706764659549754 0.004091753950489702 
-0.02769005345554964 0.01064852186517105 0.004566669499266782 -0.01114944508806125 -0.009787941469786768 0.02574283708640489 
-0.004160157825749878 0.02084290333609718 0.002384786172753164 -0.008643132858471946 -0.008423028030856186 -0.005144930877118669 
-0.002461691999727539 0.02796753395357169 -0.0007914236124522584 -0.01665475926601272 -0.007628978409795968 -0.00512100189456689 
-0.01123185598831803 0.003237085540463251 0.004541436467336017 -0.02080751994527992 -0.02572999145384472 0.0399173088190215 
-0.04263355053055367 0.01917416033896326 -0.006222340179883787 0.001236434814251724 0.01619759845671367 0.022012125125696 
0.04155225827059133 -0.04170834576283073 -0.009872798186192504 0.02942178192679906 0.002107653618230916 -0.02178815617927376 
0.0002715800687630952 -0.01878371028264254 0.0134903005674427 0.008439306092836744 -0.007118174782619163 -0.01681637024831795 
0.001215523443715287 -0.02320132414618932 0.008354969952683065 -0.006894420147179332 0.01331844583867407 0.00938592721552239 
8.626412419003967e-05 0.009426919608257726 0.003398796059053391 -0.006138074235195799 0.007901496409235842 -0.01248209022016211 
-0.01314406504690583 0.009836568646452595 0.003536856252739315 0.00069266097865978 -0.005882279432624222 -0.001891717232877997 
-0.005852716609939915 0.01303783053307775 -0.005396356496948726 0.007490429391570631 -0.009351042266026593 -0.008646280185194369 
-0.008452285787502345 0.02334706398342571 -0.01582009734877316 -0.001848627115453571 -0.004233530837667723 -0.009902286305246234 
0.009484915945717959 -0.001617124888287855 -0.003732159320943221 -0.008291587352002618 -0.003131925708685902 -0.003519286723283417 
0.003647434749841323 -0.003290555089781458 0.01050634287426192 0.004231958439487773 -0.02604608246584107 0.003979181951682344 
-0.03375789235353233 -0.01521388800301052 0.0168613441799052 0.02625859857770916 -0.02945761437073632 0.03021877508738575 
-0.0408534721158163 0.003801054120712796 0.0007124775067461601 0.01382470851300141 -0.01244754659606401 0.02169670906117775 
0.01725395362900665 0.01573170169409988 0.005000106770865138 0.0006523402675539176 -0.01589976188727508 -0.0211967761745293 
0.01436519954161203 -0.006846162520169433 0.002604694220457314 0.008653382102381169 -0.01554069333400885 -0.005012076871756099 
0.002922240416100674 -0.01206636292248467 -0.004113298560763546 0.01717667298742522 -0.006606210105250148 -0.001347542133648628 
-0.01076406369118625 -0.02841332850054002 -0.003556483316610779 0.00855874050826415 0.00783394033573487 0.02544133097724257 
-0.002605097573192498 0.00663523642891018 -0.01015391604900354 0.008025734711076747 0.009006126978241416 -0.006946486383452351 
0.01359750371223848 -0.007489531200816946 0.005870963328620997 0.01915148630557818 -0.01320138273780552 -0.0181072553618584 
-0.007537493907214562 0.003579197449902257 0.01103874772606362 -0.00515556312141908 -0.006525606061133137 -0.00702705739493243 
-0.01737209758533024 0.01527080961308931 -0.004413376015981348 0.004432391751266584 -0.01069459597654959 0.01014031609904619 
-0.01064446531780649 -0.01016160744674807 -0.007520894120081542 -0.01155011844737545 0.007376621351837088 0.02404505084386732 
0.02160571530194531 -0.01366199909886198 -0.005726169133107135 0.003543703050300633 -0.01741954495482136 0.01000022647186721 
0.009681461769228804 -0.006213477561800836 0.0004051156352840937 0.01054631912325492 -0.01814031034848448 -0.005888035360572226 
-0.008829608551734553 0.005115416224256439 -0.01347192880414555 0.00972676599706057 0.007598651614434047 -0.001295097323777826 
-0.03203877702370277 -0.008530028653506621 0.000159139100937138 0.02029430689638786 0.01533041542338184 -0.00433381240435239 
-0.007400378664394159 -0.01485178918382786 0.01899834514109714 -0.004341067840390254 -0.003446372603146857 0.00617169783115762 
-0.003785753656551317 -0.02094629745881707 0.0118315227464011 0.01041831686078933 -0.006319941546231098 -0.006004307652616146 
-0.002976961094300791 -0.02674265946226675 -0.01571853397819989 0.01218743447441014 0.02554375147928645 0.00193334446856392 
-0.05064877266120964 0.01025578288093755 0.008122231827435294 0.005701536124679268 -0.007296349198968973 0.02961799051715078 
-0.02253613335570862 0.003608370099462826 0.03915562980687462 -0.02356758601655438 -0.01606111707906562 0.01015564871327542 
-0.02484403421062064 -0.00972648067540934 0.03145515871804096 0.006179358257946413 -0.01036267217644839 0.006996587433053496 
-0.0324401164938066 -0.004129698779591185 0.009216550051437521 0.003554509160788867 0.001628088220485348 0.02673040748435905 
-0.01268727549275258 0.002456244620824886 0.001829358433885762 0.009499848767048234 -0.01408736041744246 0.0179290350176462 
0.004557072670331374 0.007952708885098737 -0.007490225106938302 0.002930000460301644 -0.02324840426561873 0.01125722378471966 
-0.01409443532358359 0.0160096303968317 -0.01285808886710219 0.02129172395455907 -0.01256917052641181 -0.004204125494173576 
-0.008338167189947805 0.0104101349832927 -0.007633449454213002 0.0002595820125800293 -0.008715329365497919 0.008803559204812534 
-0.002536774645043786 0.01949006998420936 -0.0151585723357478 -0.001034429489901336 -0.00920818870321106 0.01382133692847425 
-0.02041504563502571 0.005379588651082795 0.01840313826042296 -0.01184694791537994 -0.009894558516753764 0.008804089073664336 
-0.02999086327630594 -0.009731388826700417 0.02291074425170258 0.008836135045877019 -0.01325005338516364 0.02239444319350398 
-0.0143655601498392 0.007249113910011365 -0.00272835671554214 0.006142466445474905 -0.01205544343942377 0.01942607400528576 
-0.002502945211031047 -0.01346386199789236 -0.002368971379641773 0.01208740241230567 -0.004288917596206801 0.01182848593772428 
-0.002971499005076817 0.01632481053031908 -0.02378737500271849 0.01534999035739302 -0.01080508913184117 0.01260422507486336 
-0.01418859738848173 0.02811475112866614 -0.02005888192378582 0.01921796805709304 -0.01366836264340852 0.003915446017308168 
-0.04075489320950321 0.02566716647934781 -0.01660879761789347 0.01427884187818641 0.02381907436112762 -0.007002533977084244 
-0.04918009051765953 -0.006600027259745267 0.01316868451620732 0.003839773864260713 -0.008993664175007852 0.03749094943330199 
-0.03627136553164974 -0.03856820147278103 0.02728611882489837 -0.001525095833609729 0.001352739509313763 0.03520015219723287 
-0.04593556840472402 -0.02447682321053705 0.00738575009036764 0.0146998895727059 0.03334393865779927 0.01921883826134076 
-0.03209375939771176 0.04149283212747101 -0.006580317652652054 0.001260610691906999 -0.008295420464617139 0.002317382620272072 
-0.001287078895376247 0.02738827879040701 -0.01973193542880386 0.0006041302821860424 -0.0009689249947748854 0.001661235256382476 
0.01479770003717711 -0.008870044115125424 -0.02659801664398414 0.003917399619812371 -0.00851376011563156 0.02289678566922628 
-0.01410617540754084 -0.006544928403089894 -0.02360825238664212 0.02675993857884276 -0.02126178819400522 0.03515604373994495 
-0.001503949745659688 -0.02600460750251229 -0.003868616108670494 0.01326575936211757 -0.02575277010338883 0.03597495840050065 
-0.002502502791810255 -0.01217979576393083 0.006839317806288559 0.002246843792768116 -0.02205130324333569 0.02886713354233106 
-0.04467736806127087 -0.02132380876339294 0.03570365800099869 -0.0204081053806427 -0.01962789561328382 0.04586310413575895 
-0.01775293085902679 -0.005483645376782407 0.03778552198014318 -0.006422523465664188 -0.0435442846779026 0.03800916839386891 
0.006312636563232981 0.04502477053490521 -0.01497889852119544 -0.02117830644758577 -0.02851764131540022 0.005002636512464267 
0.04309975590347142 -0.009423907882465899 -0.01962133503190193 0.002647731406349492 -0.01476757357908239 -0.01350373712894227 
-0.002310478894846104 0.01321430533851136 -0.02497655312122677 0.01018589920980893 0.02191660662768358 -0.005553061790491103 
0.01144409010271905 0.008657524616040593 -0.01714301370691111 0.03075420342358276 -0.007602217172193639 -0.02603973960439841 
0.0004599816479994622 -0.01234086203462716 -0.007314472785229022 0.0240662509357254 -0.02460299742888638 0.01649629768623677 
-0.03664689366336099 -0.04014470725819021 -0.006647238192982062 0.01543423889769716 0.01089082618640667 0.04945767379578708 
-0.01595632247216399 -0.05439535492083748 0.008084310263374181 0.01286868224204133 -0.001123503931872927 0.03374232805209799 
-0.02059911208902955 0.009834176539358426 0.004561159342084925 0.003705754400903181 0.01211412570296258 -0.007539540911261742 
0.03276076683169556 0.03235904763107474 -0.0312356277287495 -0.005745561439542401 0.005297266355411018 -0.03632023907836018 
0.02628055438379263 0.05915331585051616 -0.02282024989878485 -0.008178082930128078 -0.009091502222123939 -0.04274130090393496 
0.02248532922796376 -0.01649183521416684 -0.02092351901119712 -0.0066263789249913 -0.01918320696938392 0.04579441923557408 
-0.002164497671021579 -0.02529658444841288 -0.02540795899779948 0.03064408966404984 0.0005135660782784631 0.02150470724595383 
-0.02293824217067005 -0.01317851655630396 -0.03099474661175784 0.04177834110126835 0.01652120389318435 0.009632666191685279 
-0.03293099633339702 0.008521821775533196 0.000946379679396461 0.01317277857353609 0.005502332980449879 0.006063681376524258 
-0.0248536372547528 0.01157932439264413 0.0005599469432020005 0.01369159146862451 -0.02378478658204622 0.01116736811959166 
-0.002856778079606421 0.01431488361959962 0.02245179687907689 0.001039597486420778 -0.03730154929572212 0.002427190696240714 
0.02464165902208834 0.03943124717409004 -0.02003558423142077 0.0001617500512159537 -0.02622811398950646 -0.02128685346401363 
0.0707721111700168 0.001195315587169605 -0.02266932523381007 -0.002026672957247651 -0.02068447015489943 -0.03562599186396822 
0.005898779734154249 -0.003134745355340526 -0.02354319959604953 -0.0135118382615223 -0.009206902393491862 0.03647805062195632 
0.03920588556435605 -0.03412711846148313 -0.009219443271007271 0.01719804097363475 -0.005357988787734957 -0.01038848806411409 
0.01067246225321188 -0.01829270007587156 -0.002390916722860492 0.01928329869693463 0.002187759732680383 -0.004819476612479425 
-0.04347227427298596 0.006532635586461582 -0.01532304998189919 0.03973886210949841 -0.003873653016158877 0.01122286356222069 
-0.02687357749609268 0.002081311451458004 -0.01656957223189312 0.01928667254203079 0.00162027605618986 0.01823329300100218 
-0.03177921509993159 0.03169310342426698 -0.001802600176050567 -0.01488257354536463 0.01353935770403586 0.007843951950557823 
0.01070819925803165 0.05686333689735049 -0.02222362276343849 -0.03368000631019465 -0.01101580520989412 0.003904092732052022 
0.04494253695733552 0.02217441974060335 -0.01789784744507342 -0.04115869080373907 -0.01717519485626703 0.01674733691167219 
0.01381642110847961 0.0200256989454082 -0.02909683957687851 -0.01305170425361003 -0.02159661993907931 0.02994715044281843 
-0.007032923808425748 -5.159985790244556e-05 -0.0222259959219442 0.01374508369420202 -0.006240922473331748 0.009895993640253257 
-0.04341161617875481 0.007076595870476409 -0.01066623261897575 0.0303611465072692 -0.00319687725918835 -0.0004536991057607714 
-0.03037298001930359 0.002503875001019091 -0.009736199175929361 0.02866995418709911 0.01035463164190806 -0.006506500403277467 
-0.019613876052645 -0.003300946159286647 -0.01668788729450147 0.05020336450983156 0.01895430260747337 -0.01841263064608709 
0.03685896446358167 0.01522124239725785 -0.009013937482286722 0.0002230331439765256 -0.0112228582816799 -0.03252177077729176 
0.04651217494459024 0.002317425788503558 -0.02036304059914143 -0.01970741783417136 -0.03283921341892092 0.01283821377100297 
0.05938768362177069 -0.003442456282845324 -0.0435330016296781 -0.009311455389398241 -0.03838682033315259 0.02128903522745634 
0.04301580355554231 -0.0109363174549593 -0.01342590629699739 -0.001512535741682794 -0.03198549695714192 0.006900013635149175 
0.01558849697785199 -0.008309614937985078 -0.009515620532912574 0.01562119143648841 0.0008717039627032256 -0.01124958426171469 
0.002341500039502064 -3.429017754417221e-05 0.007988559215777565 0.004093340898627015 -0.01272026072015196 -0.003775019574297618 
0.002119193209019966 0.005035589782781347 -0.03220392445481922 0.05033534481516667 -0.02102660380173197 -0.02382325543977928 
0.01201578131334912 0.001934401520450759 -0.002754029212173974 0.003719962196512873 -0.01466130419986072 0.0018227490318218 
0.008856995162651572 0.03598955713745844 -0.01294432537804899 -0.02652974506957491 -0.01953531842924228 0.01908660867450401 
0.006272765945074149 0.06103322182909719 -0.01654054157385064 -0.02515530954579395 -0.0272154289515042 -0.001495002101178537 
0.08558221683096695 -0.0006599498381500109 -0.008082342248523302 -0.04125775194630021 -0.01526640650391312 -0.01301697306666476 
0.04344833480065138 -0.005412407909089457 0.005167403646398437 -0.02648308871269289 -0.01320453134554848 -0.002153935688483399 
-0.01506598836861427 -0.008402194778116389 -0.01687725708915469 0.01876399939380202 -0.003813823314102119 0.01648376761825278 
-0.0222068110308396 -0.01162804967571477 -0.01290735198273295 0.03599241623167432 -0.01627375059065558 0.007343233528624925 
-0.03074868032120074 -9.17921074569191e-05 0.002661353380449065 0.01643260438217628 -0.007676113002310673 0.01513327308057494 
0.01234200800460202 -0.00869708311371307 -0.002637268531449931 -0.002714916455223584 -0.005506342205245936 0.008835071311686777 
-0.0007512663493854958 0.04132946693583388 -0.02253447645666184 -0.01991065945824667 -0.01737259608833978 0.02320734952222628 
0.05412333678217783 -0.007776056991717861 -0.02108634329114004 -0.0259570856763841 -0.03039443861191479 0.02308316703596874 
0.02702291614977513 0.0108036554810745 -0.01975286586073506 -0.02992305784112133 -0.03298582591926932 0.0402416103897249 
0.02680327054888057 0.01026269834030328 -0.02019993583315605 0.002686217679432902 -0.02215059021940329 0.009075265865673388 
0.01741511134509104 -0.003702270828296798 -0.01309508126700005 0.03518648360733551 -0.02645752467383371 -0.009372687361810531 
0.05016901697551988 0.006460584288367165 -0.01149253550020278 -0.009212293244048163 -0.02491831501154321 -0.01843482849359979 
0.0288654849182443 -0.03758817485138236 0.004789708842709491 0.02524728281569794 -0.02360566429911131 -0.008144404926741167 
0.06394240155292896 -0.01443674245059868 0.001375296830045597 -0.01762661440431443 -0.02342708673493307 0.0006414578408852325 
0.01851391370649953 0.05956642259559311 -0.01062235710389034 -0.02363953638289646 -0.02166551711415446 -0.02336959878027694 
-0.007369628555348348 0.04901281563817685 -0.00602747633907922 -0.02083126596877326 -0.03262562567345426 0.0005225178378427299 
0.01502143768374713 0.007533302758604594 0.009398639971721851 -0.02022797687444941 -0.04006795959846098 0.02097757388013212 
0.02155492047336825 -0.0367462114157646 0.0173583560900077 0.003971494134361026 -0.02768789118551607 0.01341450647707565 
-0.003834990333362032 -0.02943135874997837 0.009649174352045604 0.0266663092999239 -0.01794745573761444 -0.0006455464828564238 
0.02302667718196819 -0.01018677112523691 -0.008207524112029827 -0.003059551300189947 0.002640243222839925 -0.003742023598137648 
0.05724184229275812 -0.03132271030230485 0.01323895514047437 -0.013856431652665 0.002741107502170603 -0.02449065897302091 
0.04854657002397855 -0.01210080790831658 -0.001298302994594826 -0.01532122075306831 -0.01460050989588324 -0.0009510764374419556 
0.0380632688145103 0.04473277643891985 -0.02176056024342584 -0.0296655535824056 -0.03254885653509589 0.0005875688603210457 
0.03168904755790783 0.01934888445333231 -0.009716393644749034 -0.02309124794033194 -0.04063360685159367 0.002047934311395013 
0.007911219320432532 -0.007544001432152677 -0.01789301323757196 -0.01645166550015404 -0.009781534020979808 0.03444457093282921 
0.005697402261911214 0.01607579737580929 0.0007137140124497137 -0.01352228154365 -0.02644331888066199 0.02336640180101538 
0.02248218558362522 -0.01866513064922173 0.01395465024281873 0.01625623658788171 -0.0319068373444878 -0.0008820576913051043 
0.01121785480663265 -0.0170818966684488 0.004594581853838885 0.01302808937789771 -0.02204580104562018 -0.0001590898444442839 
0.01122190361450514 -0.02161774694159768 0.008374355736305825 0.0007658591630586647 -0.02126041445769823 0.01225949317525936 
0.04140187910354116 0.01037953909850148 0.006768817207450464 -0.02768787759206963 -0.01635017314534206 -0.01118076556175068 
0.01062271933449943 0.05317595391499131 0.005042752598229948 -0.03652154516779708 -0.02529478387983168 -0.01046645060212772 
0.006114462252301409 0.03185836643967035 0.005341239441806476 -0.02720259485707755 -0.02505677789285959 -0.006706690395238194 
-0.009224349442616533 0.003977327101497201 0.006045684190407731 -0.01225450578798558 -0.008452738263654849 0.0188610750188557 
0.03583988584045001 -0.04169606682372778 0.009725095079577471 0.01363172803750899 -0.0129843215754071 0.001747042931193534 
0.03017396137506903 -0.0416266697525702 0.0318535631095901 -0.01433154526228534 -0.01768969458950857 0.006504622222574627 
0.01826716493009752 -0.03314433717247603 -0.01020229264291067 0.01478850397451706 0.02005255461936939 0.003556349570077205 
0.02022343425984356 -0.02876496874380471 -0.003144465815856342 0.007168358004208833 0.009722515532250698 -0.007817032099133156 
0.02341541728982693 -0.001567864021090373 -0.001115712508884247 -0.01922882357615949 -0.0115500911981543 0.01019612415501038 
0.03783465946459574 -0.0004500383899085059 -0.00940952571880172 -0.01398139316698909 -0.02438725338027483 0.005459835118323426 
0.04894301826985931 -0.002293264519347572 -0.009991111817519877 -0.01021369352998226 -0.02920883434388995 -0.003323941058188526 
0.05789230340298255 -0.03618001255357531 -0.02637199628650953 -0.01757463291695316 -0.02781325027803383 0.03225835939455745 
0.03400871924280281 -0.009813615790168742 0.02102806908478274 -0.004747845433222999 -0.04441723733871233 0.007456836413058333 
0.006270537873786407 -0.04193720071730941 0.03186127544657524 0.008428050027289828 -0.01149472382931749 -0.004556137535219443 
0.01467335615265602 -0.02775930363050357 -0.02586012937523126 0.04041613090714647 -0.03508379598002899 0.02083310286641894 
0.06162126727800336 -0.007602521615650006 0.007024213591181832 -0.008453650833130939 -0.02275322443856918 -0.01730572187671355 
0.01043965227771239 0.01937950402523913 -0.003946687196671898 -0.027528880631443 -0.01616835708244375 0.0179739433902163 
-0.01098224136284956 0.01248147029304557 -0.01282560078418331 -0.01212592934306934 0.001510193979946466 0.02457780062988847 
-0.01958549378498695 0.009651008230188093 -0.006216742042177997 -0.006330817077421557 -0.009765225617969017 0.0248375527744712 
-0.01749387406136419 -0.0182716851631611 0.01443512285155377 0.00856579345242094 -0.003191893530995824 0.01047782938697691 
0.01501683437347537 -0.00840837913043928 0.02336835623836734 -0.0135142576386351 -0.01740100702196641 0.00111896848976883 
-0.0148769773320263 -0.005672123272940135 -0.001573594127699786 0.01275512221829187 -0.004502799694978969 0.003671085741262317 
-0.008026654396261872 0.01163362468471549 -0.01496658771008243 0.008825159838657471 -0.007841315353934612 0.02255886307909453 
0.003462349477363936 -0.02822601210528616 -0.02300021354664435 -0.009794473094875992 0.009407975080781528 0.03366808169603928 
0.01781927281510317 0.01763453532454763 -0.007217516485003265 -0.01269763573427262 -0.0291603003964902 0.01035007335716557 
0.03048834458885258 -0.00289624367138427 -0.01314958391443229 0.008264636378784076 -0.01268893084126282 -0.0151574172531633 
0.02333290829942602 -0.006667758149342941 -0.006433018618985626 -0.00351740295456638 -0.004465557718202924 -0.004455096744342035 
0.001616597655043671 -0.0130746175011088 0.0006372313785257513 0.00737129306624589 0.006126645830327067 1.942234488625958e-05 
0.007621595186340484 -0.009371657561096253 0.02632820414477747 -0.00763789602334798 -0.009383183924295385 -0.007752370832091636 
-0.008730989051601462 -0.01852913088493952 0.002491493158262496 0.01099325706095876 0.008383072416125801 -0.002376106449276441 
0.01558649961324597 -0.03944971903733469 -0.02688097044295969 0.02588909992337087 0.02348804127113361 0.009132255833047061 
-0.03058991666300827 0.007370648607894899 -0.002173781991675867 0.01234403611647109 -0.01111094796774718 0.01808233291976788 
-0.04035822128542341 0.008091064594802652 0.003358387897758012 0.003198385236611942 -0.01281927332734808 0.02840663362639077 
-0.01608840982644767 0.006214390411032731 0.01239930043451937 0.01046781745571008 -0.008031718299192119 -0.0002791394444222575 
-0.03298219490684028 -0.001227579957330371 -0.01015866170755934 0.02289439994155705 0.006089091742823376 0.007859626651905427 
-0.02523880254349264 -0.004410176291667275 -0.01408714041917309 0.0248825198983517 -0.001470345253564967 0.01394857839148026 
0.02002166607524354 -0.04817869734268086 -0.01759802465102921 0.02293505525905606 -0.006590218022765694 0.02366339786033099 
0.001680627895369428 0.008849369598169515 -0.0309307945538794 0.01052962037094093 -0.02282804222998364 0.03420670452778026 
-0.005936911163283645 0.001435234855551599 -0.02390731609778474 0.03896052989009544 -0.02001355260566028 0.008431372123051905 
-0.01724205495314703 0.01490349011515354 -0.02290515295063677 0.02352782161202225 -0.01592692168487416 0.0201090029938861 
-0.02709245672685395 0.03315417058258525 0.007588518759319873 -0.003713685487709169 -0.007091011142274306 -0.01086427864857326 
-0.03794104674437739 -0.01380868907598412 0.01839222254000722 0.01636625449073761 -0.009722557556285096 0.012258314248478 
-0.01355630459103638 0.01934519677692409 0.008519262393520367 -0.007008224173996738 0.00527803369676816 -0.01615567479573963 
-0.006370078084305683 -0.004575027752043028 -0.009751780727686024 0.009226058903004056 -0.004152390243543998 0.01559261349277667 
0.0004444175011360631 -0.007715509444961104 -0.01748881376309354 -0.003682550862108323 -0.0002435944601758355 0.02479323110698079 
-0.0004430510871651224 0.007300691916798548 -0.01409235435058131 0.003108928721569241 0.005879956819399204 -0.0004211939032219506 
0.01983357561357953 0.006312391140736269 -0.02376251177744369 0.007599530612938094 -0.00422682428742063 -0.0005435470002565427 
-0.01567157780864557 -0.00860829920114734 0.002347503956918834 0.005377021492198755 -0.04587387189607347 0.04902009623771279 
0.0001215497760322128 -0.03682774984434108 0.01810629722534187 0.02270374058717023 -0.03324465638110822 0.02507470934636049 
-0.02209080671031919 -0.0387640649913578 0.02671866546558918 0.007530918547134922 -0.01675138383249425 0.04378818560593847 
-0.0296885509769999 -0.01273616583743219 -0.0008455214979004646 0.01343743721645638 0.0130182191235434 0.002797198002811965 
-0.01571954302309935 0.01454858134732975 -0.02213581215994772 0.009680689103597909 0.008162826193326233 0.007989018636541259 
0.03295395867520687 -0.01994102527002703 -0.01997093204473055 -0.009486715245473018 -0.01111674897698932 0.0264473077431475 
0.01886642982210579 -0.01964723397760652 -0.02964976543362376 -0.010620922624926 0.03769937488874384 0.01173597694955137 
-0.0170803985029425 0.003713024238052942 -0.01545073970003304 0.01203851156616817 -0.01737006766926543 0.02967874270236933 
-0.02851085109486685 0.0001200204969627778 -0.02627254511470328 0.02970134170609069 -0.01555806607417817 0.03400467150907141 
-0.02245775469909755 -0.03056694047005784 0.01689476495665122 -0.005876435115222948 -0.02241784643588994 0.03548362693813348 
-0.04114123374867523 -0.0220713475739011 0.01835386625704605 0.01407229093624008 -0.00922270469532839 0.03046167999731506 
0.005071279579195022 0.02821274731206109 -0.003181428476154346 -0.01355497037069492 0.005489784591235848 -0.02035689304402645 
0.04406169316242009 -0.0158393802706057 -0.03381778528694235 0.001912213397347963 0.05836724011169483 -0.05680008225277174 
-0.03083593281946 0.01518736476366649 -0.0322318094787034 -0.01265162205328081 0.08032711721768016 -0.01608761551032462 
0.03912549883611802 -0.01523570267048247 -0.03190423335357918 0.01097565514746123 0.02554764630498411 -0.0269773989981482 
0.0263839957253652 -0.03719797811588359 -0.02651569571178446 0.02709978458159984 -0.01723301966140178 0.02637124630343262 
0.03768083566816869 -0.03405348638891172 -0.01019938931304339 0.02124603049474386 -0.01125030940508482 -0.01173809883425716 
0.0121980598396249 -0.06079386048590855 0.02825763064163719 0.0009074242855440278 -6.838935126811796e-05 -0.0001694353050201797 
0.01141940542539864 -0.01838345965773108 0.01196212574766403 0.01291898592204081 -0.0008125383919979464 -0.02182598842710069 
0.009437317188020568 0.01350401098673053 -0.01070509322251078 -0.008576733545729784 0.02637263117305403 -0.02717527296423588 
0.008700905397205527 -0.005938049391789212 -0.04302936814662031 0.006143516639469048 0.03786117273946678 0.01225544187665206 
-0.01389223767650065 0.005025164952889615 -0.03438817979851375 -0.0007458539400684592 0.01995139058658148 0.03115909563877308 
-0.01837503411678227 -0.008676543254350209 -0.02268467075448758 0.01681462659129166 -0.01051108884011885 0.03890999656463352 
0.04296009843722671 -0.01278198138157046 -0.02578071143429916 0.03054591011836684 -0.01800404964960746 -0.01706910656435541 
0.06059475121777078 -0.006490868445737675 -0.02647456472531197 0.02243946741229987 -0.02774854170226289 -0.02432011707977604 
-0.001691311644584984 -0.03295298195859929 0.002865812699685771 0.00859290468358162 0.001310134602562025 0.00148635279287702 
0.006454016636695081 -0.01976023359937289 0.01608776434497965 -0.006520507719071048 0.02569174581942757 -0.01026777237088961 
-0.0365933369300608 0.05639605141457504 -0.02697262448872983 -0.02222799151209919 0.03202240486964204 0.006998710985532624 
-0.02562214136899411 0.0423768562307069 -0.05165122934397094 -0.004370524598180384 0.05703754568976365 -0.02816755828270464 
-0.01294256935209659 -0.01510907692052624 -0.03130144676452118 0.0018501257271964 0.004541567601994189 0.04580891521366961 
0.02441570919876273 -0.02352508839927119 -0.04059693483713488 0.0536958348914694 -0.008579390172043762 0.0008174534435950796 
0.04616680325053989 -0.02002023043297043 -0.03061626286042746 0.009057370445320284 0.01390450762999218 -0.01175887570437208 
-0.007879453811205627 0.03413601598986683 -0.001728006961808188 -0.01479549538175565 -0.01772192102857755 -0.002901033863198299 
0.01882438448607866 -0.0008047077769501491 -0.01052949017419087 -0.008524747573960805 -0.005811165930139718 -0.001745412656490794 
5.895552708650751e-05 -0.01308366023364116 0.0274144624991101 -0.01218275448234634 -0.01001807447561332 0.003215075679291428 
0.02076127104202501 -0.01704252786487334 -0.02994930383130517 -0.01012560117604638 0.01870325687891679 0.01593258087622929 
0.02855548510526553 -0.0240017434426587 -0.008228131217512296 -0.007335641589939036 -0.006136475201228953 0.02279975303499913 
-0.00928683421750953 -0.005801096700798832 -0.01763908645173216 0.03019149265476498 0.008643054823623462 -0.01242091494469856 
0.03120120423368069 -0.01988115136906374 -0.02712143820218254 0.02592222717071103 -0.002677635182725708 -0.02829455746681774 
-0.01465983670897287 0.01241183771060308 -0.03696252876609582 0.04542778146467719 0.01691919327501755 -0.04077138590923955 
-0.01704144408086856 0.007713112871654522 -0.03862691173980456 0.04484053451001521 0.01338106811900405 -0.01212038851074693 
-0.0168981235562803 -0.005771529952093174 -0.006007154934221048 0.02324261682879675 0.0006759073344245945 0.007004150653480735 
-0.02226821573952006 0.02852927404988041 0.00949363831032533 -0.008105583940384988 -0.01512644325951351 0.0100247049827755 
-0.03426222811329306 0.05439131912791276 -0.05502076517768201 -0.01925707908510281 0.0322995091154829 0.01505377575956672 
0.01164176705603976 0.009954062844037418 -0.05265730098202299 -0.01605740947034705 0.03355071294313815 0.01022136177449702 
0.04242207698366025 0.002228428104382553 -0.03522273459673726 0.01506569670443916 -0.004043370823728371 -0.005031970920847909 
-0.01626007195246779 -0.008518761441465881 -0.01902032948329439 0.03198942765434694 -0.006293450967910581 0.02224125021698042 
-0.03214369424644969 0.02300094524291013 -0.01483462557184189 0.005208510747560543 -0.005125534342170008 0.01641241801419289 
-0.0006521985048387436 0.01087925968374241 -0.05166339964637173 0.05434603727662832 -0.01174335004126434 -0.01088071332378117 
-0.009961872029311253 0.01680197550553388 -0.03046770059099615 0.007926931925117689 -0.003994727790309166 0.01410267973240158 
0.004286642558844375 0.05549105039859736 -0.02120779780652234 -0.02275811932439947 -0.009531455720434666 -0.01176458684520123 
0.03565817911279821 -0.008431327103563362 -0.01914562870036741 -0.03455610120965407 0.03983948957844673 -0.02064613056738676 
0.04759243671047417 -0.0474424646723136 -0.009743620666128792 -0.02603618587702045 0.02684612222645391 0.008897926559099227 
0.03276424910418328 -0.004683888297720692 -0.02028815454355641 0.005579568906584328 -0.0093534258806609 0.006722367001453608 
0.01018717714189462 -0.03693575015589398 0.002717693832125211 0.01483328916711007 -0.003890308902167051 -0.003018268104345518 
-0.02092090852388476 -0.04092063062073763 -0.01910652680542604 0.05785173913623234 -0.01391733015259239 0.01114880059896522 
-0.003257979908206569 -0.007121616416282985 -0.01407522949560549 0.02623823816359163 -0.01117187011571173 0.003712778154997736 
-0.006719933273015641 -0.005058890966619096 -0.02562394673928927 0.03208396648986869 0.0004750550195396059 0.002985249444853384 
0.01154415131957261 0.02603255364087265 -0.01767292388076201 -0.01425738435887387 -0.007825553833016792 -0.007269511540727445 
0.02438677057062144 0.03726045312479746 -0.0316248927915824 -0.0529185572764589 -0.0210480933347219 0.0244813657417742 
-0.02721035813261208 0.019893843031721 -0.02251901625453213 -0.03459370241718215 0.04407313794893856 0.02951374824306838 
-0.02935832525563966 0.01381260798129992 0.01225770595764036 0.007539305649754062 -0.01490025479359529 0.02657759784341984 
-0.01205893054955478 -0.009423893841731496 0.01032106119065617 0.02127063554555269 -0.01163505401249686 -0.0007353367875838359 
0.02558414737438252 0.01529908377210053 -0.02050288895050338 0.002526686874585606 -0.01452480649334098 -0.01768442995011769 
0.03222175284740653 -0.04089397680030246 -0.02998618239198071 0.05956983449156746 -0.009006250992317584 -0.02592375272781312 
0.03708623640631186 -0.01554423192392615 -0.004930954834603357 0.0005267526327065407 -0.01422019309003439 0.006685455932095981 
0.02012969784265766 0.04483763711624546 -0.01384020372600954 -0.0218888675520216 0.005722816691949919 -0.03808296833585541 
-0.006503822842058971 0.003852544843941878 -0.01090970242448274 -0.02481668146824938 0.009825499395582282 0.02232666701618628 
-0.004247182698869555 -0.02905420227664368 -0.006062213911728468 -0.00941208808055239 0.01875587557379095 0.02561584326259997 
0.0008951977121843161 -0.02268178897233636 -0.006088760730561073 0.001208078421529874 0.01358153549414894 0.01750420794768866 
-0.00954061706654754 -0.00359061115429454 0.0009596578294236961 0.01160471906784658 -0.02291172604402842 0.01495922329033314 
0.03315557067134135 -0.0276137600860068 -0.01877836529560172 0.02871278267771022 -0.009620635877282461 -0.00266368753041619 
0.01805209428464342 -0.02062931742948677 0.004057765370195913 0.01307109988616307 -0.006317997972674461 -0.0004760019239895518 
0.03445283286076577 -0.01999355595365514 -0.01914002755469833 0.0196941756787192 -0.001763737767037716 -0.006738351191625342 
0.02239182002907103 0.02773779771591539 -0.02603594380056289 -0.006009602639485059 -0.01314322132409298 -0.002171723458265451 
0.03513942076669648 0.01936093556011615 -0.0339245137644887 -0.006762328286772829 -0.009956926229226016 -0.01087289837534926 
-0.01629094816633366 0.005621189421595562 -0.03199223318491485 -0.01948298692299691 -0.01105028548466406 0.06522798476659807 
0.001939597444158054 -0.004719208911905018 0.0165692982383791 -0.0197213588049427 -0.00922130548430836 0.02024828650766118 
0.006152032371994288 -0.02273511805701579 0.0349849217417993 0.009195215408079615 -0.007735070187385369 -0.03019585818193265 
0.02169643228862146 -0.03376843798711596 -0.02384171011759292 0.06159914642528736 -0.02182790612219799 -0.01981664260056983 
0.002521318596985226 -0.02862002887319799 0.001833037494673138 0.005454257260481226 -0.02683640878980943 0.03898165961617014 
0.0274128915022418 -0.01372211806682931 -0.002393418031569698 -0.006627445417140037 -0.02427331326300229 0.01566413634548013 
0.009852985338678212 0.01857251080697963 -0.006395191331056651 -0.007509213203674842 -0.02107702920444688 0.003896030228580065 
-0.01058230633665682 0.02691227263087718 0.0003884761807622005 -0.008539931770413577 -0.0390660440412454 0.01853933075182853 
0.01599309593930056 -0.02631259299811222 -0.02540363926687301 -0.004410120170684124 0.01949954972202837 0.01514030608313509 
0.03628781753703859 -0.04110640389993478 0.006174719919708162 -0.01255346537009418 0.006258912600700888 0.01117569115137544 
0.03025212424229561 -0.03336820862605681 0.01490860855754874 0.01002430772346323 -0.0381450506750341 0.01197047296190296 
0.01381134169376317 -0.01405550250915845 -0.01776559585282689 0.02718537218758488 -0.007765652550306716 0.009207051465471072 
0.006597180289464477 0.002818979347313018 0.01774944951600101 -0.01985339238987046 -0.008776566305243559 -0.002177841858630162 
0.04206411313946287 -0.009426360072662905 0.003428370248945794 -0.01316419230961243 -0.01933869879714393 -0.002458522145808837 
0.01766266899245444 0.05468207507547758 -0.013885494387895 -0.02200705075740484 -0.02366193328266895 -0.008693414553680624 
0.0493424209062942 0.009793674134273258 -0.01050603787314863 -0.03098322069708331 0.02135635418934447 -0.02994722163036553 
0.05967507510267851 -0.01571934683259289 -0.01805607108046737 -0.03366054403226179 0.0005257460340292445 -0.006783877036656587 
0.04698661120554463 -0.03446985252989693 0.02306637959428131 -0.02932209761148537 -0.0235194498099848 0.01532392076879749 
0.02976128437845549 -0.04300948095324148 0.009899638926486171 0.009999979162026457 -0.01134915176595275 -0.008700298675363909 
0.01354945134703812 -0.02916017987093435 -0.02694761371145097 0.06054478189988773 -0.0140751197005874 -0.01990601431450596 
0.03884899502884204 0.01506101810753528 0.002823611354292045 -0.02367447374319409 -0.02529993714421655 -0.0003239595665539742 
0.01129347021307053 0.003551099930214441 -0.005905934754563386 -0.01312905497925537 0.005445914572362131 0.002478216068595753 
0.0002098229191088505 0.005887339214084167 -0.01643915326835435 0.003028959604709369 0.01427914443879365 -0.0008509889146218961 
-0.002019208874692137 -0.01622204154000444 -0.01456507918133656 -0.001079826333876052 0.02232967804975025 0.01407208190317828 
0.00516680815225485 -0.008489998043362418 0.001771478574216357 0.00734588089714459 -0.0158672822901466 0.002688764561496559 
0.008558298243339047 0.007397812241972813 -0.004612809475903685 -0.008419917802894899 -0.008381011310788207 0.01052245939312883 
-0.001892784734798223 0.01190882678331926 -0.01620299289370424 0.02818599466712194 -0.002759401671365319 -0.01811484617333426 
0.02326948131291521 0.004676510217649617 -0.01006502640640301 -0.002553519356034198 -0.01676053615492924 0.009435767876169626 
0.002707906081913474 -0.009460479076326895 -0.01763829858720321 -0.005445004876364747 -0.02180431316575411 0.02840332463542324 
0.02573006468332722 0.003217037479120448 -0.009379034592309337 -0.009069695292435532 0.0071822500812543 -0.01542446600271143 
0.03805739711623066 0.006321631075963296 -0.01858400228834859 -0.005619950367001652 -0.007604486052402915 -0.005963622588613275 
0.006717852353826536 -0.01958692574918323 -0.0120572293026656 0.00178682533683874 0.001934048968779169 0.01737996570256212 
-0.04600168519819168 -0.000519810310810859 -0.0005404673940434759 -0.004574271243501116 0.0266497657655676 0.02279002581028849 
-0.02538963829326638 -0.01410864999068382 0.004637006304014269 -0.006067671471642888 0.0260241715552379 0.02211503019669607 
-0.02486300004450138 -0.01427033899166616 -0.01999408862188057 0.02152180637699404 0.02399648221353559 0.01349929899102446 
0.0330437754874891 -0.04989537548717191 -0.01272512792727242 -0.007493897169891263 0.0354796077885115 0.01128221892652231 
-0.02750303176629076 0.02154532440290025 -0.01976463490795007 -0.004770024762206603 0.03191869985750114 0.0003976900102883272 
-0.03157561562104132 -0.005829335701657497 -0.004969587641881393 -0.001447865841346505 0.008320951274706272 0.02691618269383557 
-0.03576170972863765 0.03289499143997014 0.007239517121925878 0.01001514500030379 -0.01281023487021948 0.004417869330882247 
0.005351415196902142 0.0254065284825715 -0.02001818901556115 0.02483336854632343 -0.01560917922107552 -0.02881384151181159 
0.008069835812097605 0.01878110420932789 -0.004430105649803695 0.007091297512787556 0.002395488034030531 -0.02229906674157647 
-0.0282222933202666 -0.02372480069379818 -0.01634667449460696 0.005581245823831345 0.04111751816903107 0.01969487259508083 
0.002652625016409718 -0.02616950147170738 -0.02084875174702263 -0.01394578630470157 0.02150929512038974 0.04621886899363001 
0.02382395292030133 -0.006342691242383319 0.01470362594533899 -0.0005473468722422385 -0.02573659274907926 -0.002231895467183759 
-0.02093236436054698 -0.002864953056266827 -0.01511986947665282 0.008887600844729185 0.005933252857937511 0.02167084168116138 
-0.02078670058051366 -0.009280119552959569 -0.001916689744148139 0.01031389726088721 -0.009246034996120455 0.0253040470891881 
-0.02607794736286943 -0.01005907199244219 0.01050285039482793 0.02286343792990838 0.002162417024387921 0.003311777898059504 
-0.01041285380345649 0.003057181956706833 -0.008636826154312945 0.003315192816352567 0.03875421145438778 -0.03012660867503871 
0.01350426838929799 0.01647863807376133 -0.01610562592243 -0.007916416974447419 0.02947813887341925 -0.04810583841975642 
-0.03559731832084597 -2.536964146713578e-05 -0.01829641983466651 0.002117032870831845 0.03195544417883759 0.01163027583528675 
-0.03856971345712427 0.004196646751097668 -0.0261329603974885 -0.00458709263243674 0.0186040656708355 0.04565294030362793 
0.06037222429691612 -0.03007742629914461 -0.003642274820854914 -0.02673793882442464 0.02262425473607779 -0.01841956329214363 
0.002720070785443517 -0.04644525569051847 -0.01694360599487097 0.03351636225426538 -0.007998029169152673 0.03610013666092114 
-0.002408798926198787 -0.02649512733510242 -0.008438989378825432 0.02087154097425705 -0.02056136243632406 0.03660359300674475 
-0.001882275190353615 -0.005685657694797658 0.005309746920980641 0.008719202481055162 -0.01832923394433289 0.007956026213236126 
-0.003386320322859125 -0.0009127514938248642 -0.02032183859669005 -0.00152284049563463 0.01308748309274756 -0.004209893997510651 
-0.003093743932537302 -0.02262897069784523 -0.02084344225035346 -0.006433414504197488 0.04708253081268055 0.01207211284566341 
0.02619807620453085 0.01381139612363665 -0.02637365523494076 -0.02460493273420338 0.01225007787217341 0.008153480713055262 
0.01482299265074073 0.01184257277505008 -0.03186932428508304 0.002338522509292929 0.01376304912760033 -0.008831074014349065 
-0.002420061200466758 0.01402643498190403 -0.03204884272464376 -0.007629117152703396 0.04328241127568172 -0.02432909941069114 
-0.01756088954261814 -0.01827375505934856 -0.03545652875859164 0.03415167047564942 0.02790830190815442 0.005696338683381668 
-0.007580984087721256 -0.02896079912512819 0.01029052235625794 -0.006616783180077828 0.01420637945235655 0.008068961910840175 
-0.02975250518393311 -0.01421642393204021 0.01600220139453216 0.006018891799982751 0.01828108713644389 -0.003174718833866205 
0.01344964509567753 0.01696657976159454 -0.01775509457262811 -0.003866301515076479 -0.003691598211042181 -0.005675341060304978 
0.03873434190561918 0.0155382847767233 -0.03792318995703722 -0.008902842687849282 0.01147018320410397 -0.02352116232143497 
-0.01352443751896972 0.0186861818281572 -0.03697248581531302 -0.01939842081621387 0.02761754093030888 0.02914216343962904 
-0.008226290101360429 -0.02220149429005974 -0.03738616280060029 0.003257733588508856 0.03839418057205041 0.03170253756855559 
0.06219376090961439 -0.05384551465505918 -0.03091301283751482 -0.004533043749391896 -0.003617495855100843 0.02463411462437105 
0.03274283944302084 -0.0248623433864985 -0.007503014880221726 -0.01095913270093819 -0.02156997131688387 0.03132629769709811 
0.008258199768744425 -0.04076247803984818 0.03184515530609141 -0.008820171496758844 -0.01349324094777779 0.01457758413425904 
-0.009743253206794167 -0.0004535949570966822 0.007575281127153628 -0.01446019360188384 0.01113967734669087 0.007037143389367873 
-0.0109956905059603 0.009655363757879617 -0.01758656512114324 -0.007916506682090936 0.04731184594445342 -0.03459281170088679 
-0.007653676565867399 -0.02013923799951588 -0.03710819183205839 -0.0116729164696755 0.126062096048762 -0.04314940082629626 
-0.01831701081545431 -0.01051011638219683 -0.02273574832776805 0.005905144200952845 0.06887966453843908 -0.02475012443874493 
-0.01687871510943469 0.01213659149069233 -0.02228900615925613 0.02645017626779011 0.03676721528288519 -0.0350547214888793 
0.06464956199288358 -0.01851936107556796 -0.03727692731367369 0.04059596957414861 0.002764385268741433 -0.06115859806619209 
0.05493782465851578 -0.01394295181052561 -0.04822315633734028 0.03237489802931465 -0.005163600237678975 -0.02225609834207393 
0.02629253034447828 -0.06524170876263258 0.001521985677268945 0.01360826703600208 -0.01960809966182954 0.02669626708437844 
-0.01322447818609541 -0.04926843583949604 0.02057243837715989 -0.005569262207668849 0.002831646236177613 0.04646966524636145 
0.004692804806166171 -0.02130416631932421 -0.02394741556701063 -0.02203273803610927 0.006454815440926954 0.05971756740857502 
0.008455408977435795 0.001803137858944267 -0.0492423008313864 -0.02197473847866165 0.009234122165133569 0.05354168680000548 
-0.01447264420659923 0.0110560001908861 -0.02038449166318757 -0.004728496005187952 0.001746022903634269 0.02844821114361664 
-0.02436038200882509 0.03763812725742434 -0.04160784590309067 0.01956801881600807 -0.01876353694634965 0.02940985500169604 
0.03105780826491575 -0.007199885606915953 -0.05106193421372845 0.04962173000453279 -0.02541702861757093 0.002542197674584946 
-0.01353156056216325 -0.006196574796750377 -0.03313547365062865 0.01336944483599761 0.04990446703307655 -0.01631015801002136 
-0.04092332923646605 -0.01851314843273053 0.04236608836296591 -0.03504346412772927 0.02569991390922448 0.005367490443769198 
-0.06450376599670755 0.004273757196882152 0.01201453681576933 -0.01642232564546867 0.05242934661397919 0.002709478269912715 
0.02144690818489657 -0.009637007844396946 -0.02173270654918289 -0.001284446614629004 0.02764760590225264 -0.02039718136520427 
0.04992503468902098 -0.01550749261397609 -0.01817186860884307 -0.00411382745600748 0.02192680744239108 -0.03548980826907533 
-0.02709331229450301 0.04377421827745274 -0.02735180830408076 0.03502326841005871 0.002900077610114257 -0.02388467669977679 
-0.04623345229582554 0.005861127201124272 -0.02308503368435256 0.05354844905224797 -0.002441905035583503 -0.009408771469761308 
-0.01207703716397216 0.01706157942715852 -0.0772059298510457 0.09302443373020242 -0.02454304328535367 -0.0294496611689758 
0.0206905980955424 -0.005129718222557945 -0.02778927028535218 0.02831984778901393 -0.02390905881506635 -0.001670682692235379 
-0.01998997689764061 -0.02918073153640301 0.00793477278082475 -0.007995203141320417 -0.0007292897028539511 0.05284316042370099 
-0.03527770869295512 0.001476363413244684 0.003070329445281368 -0.001733589685649254 -0.001015303511572359 0.03083289800960384 
-0.006914150081014093 0.01251947251863296 -0.03941524604820984 -0.0140270672649999 0.02317733058945085 0.02200186716327921 
0.04216472707872305 -0.001748060129433367 -0.07753334765501624 -0.01320984791209443 0.03694308299499089 0.02642122925179503 
-0.03260237140916252 0.06608270183356892 -0.01927399081795917 0.007856719575538171 -0.03063989075927679 0.007455069567672381 
-0.03043769099086002 0.081561657399688 -0.00730330972576354 -0.009435280089036591 -0.0255487120978794 -0.02296954500821195 
-0.00129691168736591 0.03331423150350146 -0.05458505755201227 0.01817721533618885 0.01091000460259163 -0.02872435447749955 
-0.0464996872404175 0.05141342612799916 -0.03570467187372128 0.05418185223812766 -0.01980367944908255 -0.009629871542916 
-0.04119750549563704 0.1024565312588833 -0.009485439276038773 -0.01890095327654613 -0.002714635812039393 -0.03643506363298155 
-0.01845260050030732 0.05994111443991268 -0.008366892102174669 -0.02067093194747028 0.01937176240070774 -0.02964442331074446 
0.01311115817113097 -0.01860120755266185 -0.02432118106463805 -0.01540418876793885 0.0425025308789279 0.006499710492765517 
0.02789757806129527 -0.04382909519671749 -0.007317016161005525 -0.01080395663278569 0.03012585681711203 -0.007381757873519735 
-0.009650702263237859 -0.01595088332790752 0.01851138954070745 0.007347075733732526 0.008480518748941516 -0.002857464416114086 
0.01544441909266082 -0.01102515689813095 -0.008614019101025138 0.02287074457437526 -0.001607365095021386 -0.01919351206819377 
-0.03327580441213944 -0.006896213200661044 -0.05316968508654686 0.08266542526672822 -0.004992139965164065 -0.003617072588109237 
-0.02749678369077865 0.01488757072049088 -0.05002363361985058 0.05034830573789267 0.001127250049470778 0.003786140304125774 
-0.03745566546375635 0.04552691306726199 -0.008753873808846664 -0.0008522861801314525 -0.01746286487685532 0.01541594515399645 
-0.03478707980559754 0.02497114771231639 0.0123634819382238 -0.01882936396747985 0.0294578594745043 -0.01006477651382229 
-0.0275844268656407 0.01088081299106177 -0.05627444784885485 -0.03462929944196893 0.04859232856374818 0.04536153620403189 
0.04862928585802619 -0.01561551805325969 -0.0427542275402676 -0.01660075753707427 0.02937078700902159 0.006043950860492328 
0.03307901887913039 0.004259920894718802 -0.008236821554377429 0.003495661933084327 -0.02340618487621697 0.003445015045161615 
0.02359847044813591 -0.01749908009318293 0.008062578453124952 0.01312159132804998 -0.02665981761648504 -0.0203126354418645 
-0.008578338872023727 0.02546008936539199 -0.03927964497613584 0.04428580620309675 -0.01578697814617038 -0.02425725560992641 
0.05177456697635101 -0.02363127838357233 -0.05652716703269374 0.05858481854556805 0.008829405296138728 -0.05789047511526726 
0.05077488958770756 -0.01390039843139671 -0.01021516143522314 -0.01144427709604656 -0.003618044717138865 0.0008417733029079494 
0.01880946670705666 0.01524764773230382 0.001595743800093235 -0.02733408134426489 -0.01287764808511144 0.01157820007342318 
0.0350250929780158 -0.01189131833619785 -0.01483630626714224 -0.02432115575855259 0.01495177248814889 0.01007556429455807 
-0.05820004464643087 -0.008935650993323475 -0.01716264647917813 -0.01581210920064201 0.07595242004932456 0.006256938568154271 
0.006058141651460012 0.0005775122054641087 0.01963023977712816 -0.0222993025800499 0.0142270965118188 -0.003944049746660221 
0.02046107530871212 -0.01974320227038213 0.02781796328745959 -0.01786946378660955 -0.0002153268485519704 -0.004538727734503145 
0.02710668030457284 -0.01221747022405567 -0.04318459799717476 0.0399291365707388 -0.002421376384502013 0.002522365640945107 
0.01023863503826683 0.04178101028340427 -0.02865054901678212 0.007155077519050905 -0.00766819898264872 -0.02196115481009215 
0.01733359353040053 0.02745386142600167 -0.03567243887920119 0.01116788475976235 -0.00219081913832898 -0.0167007691571369 
-0.01572171002818799 0.03477950130506724 0.0008285758982003527 -0.02388883718600555 0.005573770325887499 0.004196725829041915 
-0.02832012574874 0.02149320575670426 -0.03590566366107278 -0.0262354402306634 0.02447984710063358 0.03469433543424204 
-0.01557962891778983 -0.01764862052698483 -0.02171377096952529 -0.02653247724438859 0.04206023748307954 0.03339163499106339 
0.04197564366053523 -0.0137522432427724 0.009991268379387073 -0.01525616203169156 -0.004322483881095637 -0.01427518705926351 
0.04412246205788393 -0.02948493061168309 -0.004241755236597098 0.01002994705299892 0.006911453552216941 -0.03454960700255153 
0.03053783790591758 -0.04081703023031585 -0.05872901745996605 0.1118409749535615 -0.01752817308450737 -0.04599282168734135 
0.01717322415420184 -0.01708211004679707 -0.004136768665541561 0.009004470641390086 -0.01639966550060475 -0.001978739591316086 
0.0403996072984913 -0.0155165151164736 -0.002986659352972844 -0.008927505839093863 -0.01851044280456038 0.01089563505416892 
0.03398852801391342 0.00249895400786862 0.002931082520569995 -0.01909427769235722 -0.01480784788082508 -0.0009836532553513975 
0.03097415601622997 -0.007763160134437704 -0.01586183332377224 -0.02393141279792071 -0.01312163281645143 0.03434514753547154 
-0.01219883900530298 -0.00836501930248113 -0.02852118434123629 -0.02655041605392063 0.1001414249931333 -0.02554267705751753 
0.01399647338563142 0.007914204906208028 -0.01487645973660881 -0.01056022224990547 0.01114687567539063 -0.01605412680344284 
0.007549969542298782 0.003237462910737697 -0.001365960876149436 0.02481208095648425 -0.01336878479997013 -0.02173795523381997 
0.05634209180171156 -0.01361064425164708 -0.006161038085690771 0.03182973160047303 -0.02408676816820317 -0.04148833607665364 
0.05822733811359763 -0.01712810518919169 0.01990795582105292 -0.01343388479482311 -0.01919826915798504 -0.03373256112386714 
0.04442612117387607 -0.007275280024748823 -0.001046470374990041 -0.01061678970845355 -0.0271997662868314 -7.65010735050918e-05 
0.05401714429033178 0.02719286848296268 -0.02709808457422062 -0.0150570866660942 -0.02563336964217633 -0.01140054749965849 
-0.01318580867264926 -0.01835234598227815 -0.03064177362265191 -0.01539220238108865 0.03905212694698076 0.03351340905511321 
-0.05385342822281455 -0.004384173126869753 -0.01942368765318538 -0.02868544923374972 0.06174327673002861 0.05579767462713276 
0.02127813627999199 -0.009875267672813895 0.02639858545991888 -0.02172389976348695 -0.02015422170489031 0.007256260220046833 
0.01067012478341291 -0.01349711849807668 -0.005192476985007712 0.02643718069374412 -0.01538321626874215 -0.0128389146943384 
0.04121898374860461 -0.02210549052219103 -0.02649505420633847 0.04170250820520231 -0.02317593333090684 -0.02220786079771797 
-0.004193250340817789 0.005896211962634949 0.003366448835753088 -0.006955928857511857 0.02319784319300165 -0.02332533435683465 
-0.002080648942778168 0.01868038662584417 -0.0008914055405180025 -0.02572613552423941 0.00112786541915471 0.01104672590930593 
0.001924255708159093 0.02014627077579759 -0.01289053776897095 0.0001294816966945343 -0.0007659566980194946 -0.001704722207925308 
-0.03008460325040287 -0.007014619773436059 -0.01008430751677341 2.73088718452042e-05 0.017048703360254 0.02894274430464305 
-0.02714386211670189 -0.003475906832296664 -0.008259483457209569 0.008635349622912465 0.02231199611814151 0.01180703073039362 
-0.01498966477516657 0.005854281077990782 -0.01671547614505122 0.004296225766450719 0.006494396086381171 0.01278665782988316 
0.004160362327560597 0.008868200740690262 -0.003066789110776807 0.009624522242702055 0.01322941954199571 -0.02738936579986509 
0.06067731917094726 -0.03492824636171082 -0.01776980114187575 -0.0104622482924392 0.01160708077111004 -0.00839546376716801 
0.01223160105011079 -0.02729786805622643 -0.01970244939546771 -0.01301641855090335 -0.006894907168895171 0.04517522927214434 
0.02019246111301136 0.02774194805983855 -0.01413612668496267 -0.00620154457036719 -0.02091609600054459 -0.003746615692793939 
0.02842859091380329 -0.0005925882759638662 -0.007538803811845236 -0.002183620288225041 -0.004605837935482824 -0.01884038619679897 
0.004585565934691816 -0.004031247560629888 -0.006459190516949817 -0.009343540812926964 -0.005215234519454463 0.01234298254115565 
-0.03524891663758408 0.0001773885317236781 -0.01324876208601106 0.001126642412618521 -0.01205287667800232 0.05761041478491885 
-0.01896881298829784 0.008899143271057012 -0.01071972414747611 -0.008185809896848799 0.0005565496563621204 0.02956600662964173 
0.02488520619843329 -0.01520100732641327 -0.001084408503023715 -0.01055797222247526 0.01915927144048088 -0.01883353088486684 
0.02643180030569816 -0.03166780342017445 0.007454269079010926 -0.03052657977359416 0.02627471726646437 0.002313202030342125 
0.02962440952918747 -0.01996455773501623 -0.02581127497866732 -0.01326518049131973 0.03776364680164727 -0.01163041022403085 
-0.04157537146674358 -0.0007975873419982959 -0.02987486178141851 0.006937236566630063 -0.00235730302916007 0.05795730180988416 
-0.03270340063905895 0.004579251975997733 -0.03470638533407881 0.02148355939124324 0.02097716750847839 0.02036740304529544 
0.005276456694260132 0.005911980945054345 -0.03656600141558847 0.01609177195892711 0.0281909877289057 -0.0250094363783618 
0.01643543399112146 0.03974574335806096 -0.01478587968695648 0.009950206320243467 0.007389175559694541 -0.05859992865564667 
-0.008791221505527401 0.002653115584443193 -0.01435429493172039 0.01884760541121459 0.01190521708145126 -0.01772536513414284 
-0.02575462104498328 0.0166084176079669 0.0047338549150319 -0.00615198811037394 0.008211695239552314 0.004003273297499454 
0.003654550530536285 -0.0274410072898004 -0.001356066914975454 -0.003883209325277017 0.01446193708852424 0.01953034297577034 
0.02188173674205148 -0.0216452639228197 -0.007736985342146611 0.02004975088812473 -0.01238109669305297 0.01367513468378681 
-0.02026132165945682 -0.01116309640756867 -0.006228637543347001 -0.003803107863426009 0.01448933077737282 0.02795248074484267 
-0.02075166460896415 -0.01159614912511373 -0.0188275551730637 0.01555915291445004 0.03303543234001857 -9.878002548490634e-05 
0.02067663637398701 0.00524963870039153 -0.01955645394057544 -0.002681229607379713 0.03222664621060315 -0.03108750663022672 
0.001818135043103338 0.03916357888359488 -0.005987219057414376 0.03474493217885488 -0.01458452425045444 -0.05423249132080545 
-0.0349009233124405 0.01897183190992614 -0.02652936406575403 0.006895638752137513 0.03373500903201464 0.008652975386669058 
-0.02311453495858753 0.01096652421500229 -0.004426845192474531 0.01135671622059588 -0.002052445169289768 0.01226189654286779 
0.03108222751025757 -0.01040927355744512 -0.02975199790990895 -0.004489258235241834 0.03519963180982533 -0.01860332926770567 
0.01023337967231391 -0.04387976317101835 -0.002295877764089004 -0.02053709030359845 0.01968485698380548 0.03014089223899414 
0.01077078342296238 -0.03255301295988305 -0.03815729778700431 0.01939978397122432 0.01558395993967419 0.03520286133271359 
-0.0002729641959433774 0.002142476970474874 -0.0217734186416042 0.006894074135237921 -0.004800528593262881 0.03386894147869733 
0.03716833540124127 0.003745427677636596 -0.0332663492632298 -0.005850481543758728 0.0109355671773867 -0.01123737217425196 
0.0007220430969275319 0.01228638129552076 -0.01552809632126777 -0.008536947760491921 0.02003899980618671 -0.0106113117483004 
-0.02506846332117014 -0.02865010542359507 0.01961551206765827 -0.01069394327855937 0.01392848203254221 0.02683439851621646 
-0.005161558049568673 -0.02411093927855831 -0.01043501758137218 0.006947311752536926 0.009209747781591053 0.01323260743971872 
0.00589768113053054 -0.008472395094283387 -0.03127049991148009 0.002528302119204883 0.04120338061159057 -0.01885128791761667 
0.01100673516166623 0.01519930921533441 -0.02934541483754674 -0.009529435146849986 0.05618393486045357 -0.03246719293317135 
-0.009113094517048335 -0.005899908436650558 -0.008759993868069992 0.0003733243909576534 0.03060262736271971 -0.001240984538356598 
-0.002675461375203531 -0.008850484506589491 -0.004568937391138098 -0.002411776637235944 0.01968798460671038 0.004186333773177829 
0.006909468470778285 -0.02208321356137289 -0.02144383257536543 0.007264133747596865 0.02456771778443927 0.001914557850829432 
0.02357894163694856 0.01148131294403006 -0.01927279612678097 -0.005591463918116528 -0.008994033830981036 -0.01797458540567914 
0.01951958930258028 -0.02015224765215213 -0.01132261838686486 -0.0002157155999741752 -0.005512615129276721 0.01810591911444472 
-0.01307212481772507 -0.01674961017773762 -0.02349977652699011 0.02829142562440899 0.007241209255866414 0.02736172876634954 
0.009978131442555358 -0.04925664284504609 -0.04396148720834346 0.04433428138994359 -0.003408704193864487 0.04086302604995755 
0.01792622953875874 0.01957961908051722 -0.03686725307416303 0.0002401207182887773 -0.009262867884673648 0.01068296733491175 
-0.03171920845434775 -0.01370436048573644 -0.02013182889995721 0.00577818445662461 0.01355751631047145 0.04323610740421983 
-0.007009243721217652 -0.02025394797837526 -0.01783888311623716 0.01979516461891688 0.002112851115093205 0.03247902415890721 
0.03792793266990044 -0.002227923745930717 -0.04065315823369646 -0.009990900218278814 -0.002929003227755531 0.01366489129904262 
0.01890984931730469 -0.01230650599517434 -0.01583921343632199 -0.02168833266225766 -0.0150423889653648 0.03419111450510275 
-0.006816112554170842 -0.04504673423558469 -0.0003246182493030977 -0.01020235857260285 0.03525962020347696 0.03340431203042593 
0.004704756428011683 -0.04360971541397217 0.003836464786822547 -0.007856499105416677 0.01130720870094007 0.0177696926672278 
0.08286459716575771 0.004906654537469445 -0.03813270688289042 0.01641545524915813 0.007308827370594421 -0.06303250341594546 
0.06567795959673038 -0.003500732416037603 -0.03549188566047655 0.03763345502394443 -0.001431810652040273 -0.0797659480264291 
0.02205487183667073 0.001563127371495657 -0.0264589724404344 0.0259820013642856 0.008747136155202418 -0.04408713178908348 
-0.001985540038891594 -0.03428652705697043 -0.003200062083023031 -0.004727048851551342 0.03151716873376198 0.01632202764648916 
-0.03193314882212966 -0.003734369205909483 -0.03280755762680797 -0.009957267781978713 0.07726179904155051 0.01018313587072153 
0.01716874545124239 -0.005397458655306356 -0.03261582400323194 -0.008498195843719291 0.03445811952158452 -0.01266282046533918 
-0.01385002629091111 -0.02917359336302551 0.01000528047316481 0.001975551477041495 0.01006128778563688 0.02530237534137247 
-0.01626478519861691 -0.0301206055951353 0.00650309804801571 0.01498095312533367 -0.01051166871428468 0.04080667989250165 
0.0168696050938656 0.00985059122034455 -0.04613925861976029 0.0002736261143001669 -0.009547416580322184 0.04068666682257654 
0.01341338784987162 0.04263017447076725 -0.03563200420018709 0.01579019360343243 -0.006851957335889514 -0.03862927856528216 
-0.0393929300737267 0.06795298270738752 -0.001783909615638926 -0.006556671115367772 -0.005372451230423685 -0.02465098725101888 
-0.0608761758262257 0.04302592547210924 -0.02289761594238879 0.01526593372401637 0.01425120772590294 0.01253934385678174 
0.01841045056637318 0.007436861929034821 -0.055716033796404 -0.01276433745572296 0.0208283143956411 0.02480768305167456 
0.04372550326853682 -0.01705726296147701 -0.01600237783473112 -0.009365024150939651 -0.03041710641949208 0.02338282921967473 
-0.0468111181140626 0.006256507966018663 0.02462227053379817 -0.009812989255444072 -0.02087619953054451 0.04471394382978939 
-0.02663035638293289 0.001076168791376399 0.01470638789485377 -0.02518793990548359 -0.01661146131201098 0.04080813453950109 
0.01401113503722455 -0.004230094462339315 -0.05646476517190157 0.05085783762650321 -0.01194059167259432 0.01451856629397062 
0.01167327952645748 -0.02235362978031826 -0.08205082809326107 0.09806075520734937 -0.007324335587330392 -0.02391908360569229 
-0.0312420640190851 0.01874545768452836 -0.02733830319742819 0.0366918876346276 -0.006977781050927693 -0.008522932137268268 
-0.03681385037407423 0.01320652210146949 0.001313477250409557 -0.003545961619557426 -0.002489194910170423 0.02580076348129063 
0.02626054864819303 -0.01581583870372703 -0.02214336110453959 -0.001572452952152745 0.02515905977398082 -0.006420401120059417 
0.01829298074429417 0.01312103514138285 -0.03615567466879079 -0.00966046388104796 0.03843633244671029 -0.03512277235799282 
-0.07290475564803574 0.02398427674002995 -0.005955325007952221 -0.003932224400980426 0.06062662820830159 -0.00401157363724442 
-0.03996883388692619 0.0291934838243745 0.03720769379115866 -0.04581132122224549 0.001028449126449442 -0.01079837141739672 
-0.0005421329155253762 0.009069497514836385 -0.04191320708403284 0.01785211674424193 0.02870343198055725 -0.02827243617548095 
0.005547249558767227 0.04846152078580476 -0.0518208883767101 0.03665697721447203 -0.01612232698391959 -0.03473153480093383 
0.002639822238692542 -0.01120993989838933 0.01400976216650305 -0.005600593337915929 -0.00974570679099908 -0.01101644933839415 
0.02183130264397413 -0.006418951991309707 0.007860553572717721 -0.004485063121860779 -0.02245894749678864 0.001690910607117229 
0.04073336853537404 -0.03788114182055929 -0.03026856609050008 -0.008259717792573543 0.007918729166476207 0.02455047182666091 
-0.006486185039624935 -0.005561990086521254 -0.0334882105237841 -0.02511690654758156 0.03005965322090593 0.02810290969308802 
-0.025152953605279 0.02891354252859269 0.004452934866856211 -0.01119138943201637 0.02637227049545764 -0.01081563649161196 
-0.02789939030095865 0.04533056854131131 0.0009679574500631186 -0.004112106320452756 -0.002396343230344633 -0.02544590926264966 
-0.02757865471628873 0.0279575758553103 -0.06153043247796621 0.05222949264653078 0.002001208910566147 -0.007417300455907477 
-0.0340622280781012 0.01936973443147896 -0.04106943060533478 0.05363106647623123 -0.008413066242901307 -0.0009369181488924894 
-0.04417950626756152 0.007752151909966969 -0.01345392582754676 0.05130296841575503 0.002052202060869071 -0.01320227317061701 
-0.0191222067306484 0.0009541519197009957 -0.00101188630262095 0.003814913484988768 0.02690907126251388 -0.003422647483609364 
-0.005295200825918637 -0.05024327587581771 -0.02477209474557091 -0.01024647224496553 0.04709869207909069 0.03412428924435881 
0.04400120703342681 -0.01952108146732725 -0.007524043870555056 -0.02695748723274695 0.03063643964263402 -0.02066379992943629 
-0.002630945457400842 0.02649088884863364 0.01034634785576306 -0.02511550238054766 0.01416362299636785 -0.01119516787232942 
-0.02698683940570636 0.05997258797162085 -0.0005069285792832058 -0.00932988700708467 -0.009988123640271417 -0.02487915959581235 
-0.03121127064900595 0.07415952419947885 -0.06710089515291831 0.06912108554098956 -0.01630719534074625 -0.03437777401662327 
0.05957612461438158 -0.04103103925148679 -0.05201041569083044 0.0736038548114023 -0.01387140691288659 -0.04448471285837103 
0.03059068535787995 -0.03219922818310986 0.00385006664485872 0.01445414468357035 0.008570904372617949 -0.02620277764846712 
0.05404461501984308 0.008617356572877774 -0.0001116500127972494 -0.01263998278363587 -0.01192940913512487 -0.03345010740027327 
-0.01567357699372508 -0.02303909792953411 -0.03397824512477206 -0.0264403332313513 0.05199411328180386 0.03885664441140549 
-0.02275586015739478 0.006735779265182458 -0.0305207799929941 -0.03088263688244758 0.02283402690730627 0.04603755160125036 
0.02462863559467485 -0.003913656361390787 -0.002595840566251461 -0.01377809911390054 -0.01451173593158211 0.01107735669985825 
0.01256268046414356 0.02993632861069473 -0.01403448067182928 0.002276598488538554 -0.02083343890659669 -0.01280165985517596 
0.01556953043157317 0.02921008417740006 -0.04616426791062204 0.02340602822020127 -0.006559789336236475 -0.01336485604162187 
0.02743738109316526 0.01892691028220877 -0.03626217618510071 0.01414413223439185 0.01097604996751405 -0.0268312877658339 
0.02272299647979042 -0.01042016151968526 -0.007392092740742158 0.01291514625467199 -0.005072863033953566 -0.005382674651681295 
0.01848460090047739 0.002759691794010673 0.02801606990880113 -0.0284468924153335 0.006397648771758359 -0.02472765929757614 
-0.04564550902734094 0.01389725104234501 -0.0297900282467461 -0.02385664487866069 0.05793823399520323 0.01228735263890907 
0.05013259216132607 -0.05502142464927061 -0.009048635120375287 -0.02970337151910251 0.03096325018974957 0.02057372437273524 
-0.0075378060090959 -0.00381388797452315 0.01432579544157244 -0.02568398392490544 0.02844284935598141 -0.00550316823569951 
0.005817185796678082 0.006138240451785095 -0.01528419188295524 0.002994226646727838 -0.0006361004024545518 0.003190095556958289 
0.0506987378643295 -0.03390476396000367 -0.06172977426595957 0.08129041936067827 -0.007538568868860714 -0.04830164144188839 
0.0486668919341911 -0.02450545725307359 -0.03242753653840888 0.01827288534069313 -0.0224158721735562 -0.001626948509332773 
0.01340753418124934 -0.004104207868543924 -0.01681745811085611 0.01426373915379176 -0.01257301782326406 0.002231542956079764 
0.001275463241175049 0.01858099084505615 0.008450212805784505 -0.002536941604624803 -0.02183426625451142 0.0003589715836904749 
-0.02176350859893937 -0.01807500706913339 -0.02449376633098791 -0.02791906479882522 0.008481332913562695 0.08095555853854113 
0.01106753704731601 -0.00250906711574302 -0.02309141967287189 -0.01821140059163939 0.06130518130641378 -0.02245397641058152 
0.03908693464710163 0.02028994318837293 -0.02687909709999897 -0.008867670078045387 -0.01894679152373518 -0.004269522500550664 
0.04187594258501384 0.01818999476743433 0.00735632457975738 -0.005925440816782679 -0.02887299743598012 -0.0287775220836254 
0.07758154075513522 -0.01820310423879978 -1.248839441352476e-05 -0.005087797359615715 -0.02647046503696281 -0.03098034166995537 
0.03719287856661038 0.002935300829632034 0.01161307007398157 -9.353208521759917e-05 -0.02218956829140109 -0.03552217324817791 
0.02783575613077314 0.007824300531967599 -0.02489552714984835 0.03390128982697646 -0.007595766419042459 -0.0304624877623857 
0.03168440329026791 0.01502766187437547 -0.01007836752381276 -0.005853549398533248 -0.005553051804395756 -0.02181559031929192 
-0.03637492655119322 -0.00522982971859001 -0.02788835572863284 -0.02086561552864943 0.0717258280771825 0.007210862722347952 
-0.003752402723422536 -0.02395505090247416 -0.01940790408813585 -0.01220219634182554 0.02448047081366087 0.04771661307779727 
0.03584921939098956 0.0004187631004986088 0.007083754452414827 -0.02263942544422863 -0.02642682969714684 0.007171687049406692 
-0.0004743670988414477 -0.01617026346989313 0.00221172844491443 0.02433112913242431 -0.02107686552870382 0.006300466676895419 
0.02619597815863615 -0.02094363700517947 -0.007830175437976596 0.01478361787478834 -0.02092735020995725 -0.003381870021829315 
0.0490334166120224 0.003428094654448227 -0.008921320014380306 -0.04914100233203433 0.0188927805834383 -0.01311896878751788 
0.02018943787776047 0.01637322113500046 -0.005901179587356658 -0.009819472574191886 -0.0009497635680357563 -0.01844907578580602 
-0.01517519333673834 0.00913343367532328 -0.01873675692535575 0.01195545005561479 0.01378253028527196 -0.001421379867219121 
-0.01520531713888366 9.593900627251242e-05 -0.009704929048354467 -0.01266275480033382 0.01126305725569814 0.03590939524276721 
-0.02039272892464518 -0.003467913944371463 -0.01008204604104861 0.02784004072770622 0.008521888531278308 0.004127375741447676 
0.04010698579789029 -0.01537621099796732 -0.005861195880126941 -0.004725700312653694 0.009746853811296355 -0.01875743892547042 
0.02280660743004971 0.01353400850744026 -0.01411873813579582 0.004376244138497693 0.003861535502081303 -0.02864987852317266 
0.01009575725123316 -0.02704290479691411 -0.01952394097499588 -0.01514199415390826 -0.0159649000272771 0.05307838236194159 
-0.01569029333056122 -0.01916090321816881 -0.008329128677261804 -0.006760890440562784 -0.008993538305121571 0.05839051230718244 
0.02168104684333564 0.01861974747586375 -0.01274050556246651 -0.007380866206877785 6.641379109102553e-05 -0.0157419305787636 
-0.0261623975634062 -0.0002137558961957159 -0.003196310267070815 0.01503802517047015 0.01125467164442606 -0.009616697860330344 
-0.04264278083278081 0.02033162519123664 -0.01039008577364252 -0.006087983197661932 0.004868104958095083 0.02620393421061386 
-0.04924548483654869 0.01138256774504097 0.00164697737622334 0.001615328638296316 0.01960053187682912 0.01696630041186686 
-0.01216855000920614 -0.004341962435053015 -0.002459938359364864 -0.007994227325079581 0.001520252035767565 0.0234000061839887 
-0.006669870092106487 0.02590267727445348 0.001538959950064273 -0.007602970983694985 0.004415060411487234 -0.01817798805218477 
-0.01349894903164967 0.03678332084781189 0.02253106745584269 -0.01602366733701708 -0.01190001094521924 -0.02176652187862173 
0.04208332287507108 -0.01630204143308128 -0.02487514957102668 0.01194875411586741 0.004786572275129 -0.01772129802552034 
0.01673874890511535 -0.007404277926319135 -0.02144261363629437 0.0002960609291545489 0.007490912977168601 0.007648214385358627 
-0.03723931482544567 0.02029877308495558 -0.01805942294359992 -0.0003020238986247066 0.03135393090159644 0.01107459655032565 
-0.04255023933959469 -0.0002788110747258785 -0.01086925542453647 0.009406958197872482 0.04154245683912868 -0.001484054266061279 
-0.03151203724906878 0.016757655804218 0.003798296712577418 0.00204034385612464 0.02372581999658206 -0.0176472250944685 
-0.03029877411612076 -0.02357102643704722 0.009809832436267587 0.02214862552934861 0.0006948577713314731 0.01245940637336409 
-0.02886278880287585 -0.004800475106841566 -0.005150579857683865 0.01245019041073396 0.005192136190590875 0.01062354559603877 
-0.01588716398118655 -0.002696227157809632 -0.009285721836483969 0.02469408806118822 5.189821402423535e-05 -0.0016901408648271 
0.01110880898724694 0.007661993745940692 -0.009906555726661053 0.02454181669824175 -0.02316731634045637 -0.007513934578663369 
0.01075979480703925 -0.02136597795313668 -0.02328799098860775 -0.002648958313385794 0.001972515147974886 0.04488304763218264 
0.00674160783738102 -0.02752254269297324 -0.02500942768211762 0.01447087319583618 0.007547891615609791 0.01584573814207938 
-0.004441016538005547 -0.01658582851235288 -0.01052747997460491 0.007109028326105608 0.0130347337726298 0.002513615581787345 
-0.01264157799736325 0.01947836808012059 -0.01918505483098819 0.01879296951486776 -0.003838706422801127 -0.01064311580064323 
-0.02651424645974663 -0.001907322266051542 0.002266044365761467 0.01155959773881883 -0.001606989956954647 0.01792385848727949 
-0.05573651979817248 0.02484222813438161 -0.01288615940632125 0.01300919009384659 -0.01372844783997604 0.0390130090592743 
-0.02257743719998209 0.02776595293997061 -0.03381452747804054 0.02015884068040617 0.004665101675568685 0.003033413024376234 
0.01932389442455305 -0.02381905966225899 -0.03448873725711917 0.03769443946855743 -0.01636364153694118 0.02310344447965134 
0.0006065747807015541 -0.03565572968294289 -0.02976100615461905 0.008201905006742788 0.04251482267507891 0.01529242200773489 
-0.01494967509265777 0.002679787390459801 -0.03645568282931261 0.004051618078906544 0.0412478066770995 0.0007827755212060769 
0.01496430809378138 0.01000037974908821 -0.03208491511393832 -0.007838699255375042 0.04057722322967237 -0.02961655748909609 
0.007088496031432026 0.0131412645634207 0.0005823358178656664 -0.004591837538108239 -0.01061576396392385 -0.001036874950412265 
-0.02993732452728932 -0.01625375555327624 0.006594381083012072 0.007087467668905399 -0.01790703512114498 0.03587727287213577 
-0.004869583743475444 -0.05199185157770738 0.03175299995978455 -0.01124068654384722 -0.001879730154990803 0.007037071257802829 
0.01002071715721371 -0.007607218532541333 -0.03377455278945949 0.02976523310699407 0.01627973602617069 -0.005204436757664574 
0.009782836495166676 -0.02613846975682761 -0.03446398641779463 0.02972260511257114 0.03002722265779074 0.0009475985945106212 
0.009532637814895868 0.002148463549263522 -0.02052655749745694 -0.02879412003081838 0.01287913436209649 0.04120853067100479 
-0.003433887759590323 0.02274499768186955 -0.02523954167323545 -0.002242188618989044 -0.006896966025834155 0.01865618721125925 
-0.009822580178322519 0.02941177235920514 -0.02710001975974485 -0.00491922710246954 0.03246930215737024 -0.01831169835977768 
-0.002617114735958666 -0.007884582010044562 -0.02064677459057531 0.01104111368583733 0.01089722792212296 -0.004440238951264715 
-0.007320124967596341 -0.03741449909129237 0.01916596276485253 0.01151146526430688 -0.02160217339365667 0.03622839363951325 
-0.0172622206319489 -0.01743854126853606 0.01248482552366687 0.005217167200369776 -0.008329070454452756 0.0194928697843854 
-0.01111968736420363 -0.0189599500906447 -0.0308088850545257 0.03300814661316797 -0.01815730352500541 0.04858300376021508 
0.04037546747555744 -0.01627716327589024 -0.02430578117228701 0.01140987395069897 0.01132771516108226 -0.0007894541498777011 
0.02407639920771978 0.008474205480571703 -0.03133977786175159 -0.006860239665582419 -0.004870736107606368 0.01688522842739239 
-0.004299225059174768 0.008025982069256185 -0.02963144995270992 0.01788656084674287 -0.02326974675348755 0.03356676034349503 
-0.02529427438742058 0.02405256585357755 -0.04220196774262869 -0.01680915286802262 0.01388845374640833 0.02798575294656678 
-0.01434624026431041 0.0004263717158449439 -0.01163632725593078 -0.01479994053564127 0.01503683153119775 0.03005799997870449 
-0.03776874952318011 -0.004803656357645658 0.0325151715715128 -0.02200199586266955 0.01251886280448824 0.03145782673801344 
0.0184478773869556 -0.03254277576923851 0.02631335653389911 -0.02128630563183649 -0.007905554615458471 0.00419212092437566 
0.05062605932215769 -0.01059455764917112 -0.04596996830567564 0.04297681825515107 -0.02823978212534355 -0.01271081347799417 
0.04130396959800244 -0.0354508975158082 -0.02524527154734247 0.0533254834425319 0.001947478385999818 -0.03318716167113569 
-0.02401004061900406 0.008777287403155759 -0.03543774617904662 0.02780431443847285 0.03402449279382332 -0.0126423114553771 
-0.01435114486995047 0.01530113926295901 -0.01569433712511205 0.008780025900433426 0.04005121182883262 -0.03973014609465454 
-0.0179379715780568 0.03651565749651352 -0.02651418135854099 -0.004802171912478781 0.05108670399784992 -0.04402329716510898 
-0.0112734546450507 -0.00505170934697994 -0.01968251471980507 -0.0003066306315839569 0.04655790370164695 -0.007556177885691061 
0.008070177809483395 -0.01740646242317093 0.01943450401852575 -0.01121569947458635 0.00951821113137357 -0.006483591941316843 
0.0294656080385029 -0.0583708931650314 0.0441368823866494 -0.01863291515206986 -0.01285495415970473 -0.003713105311062835 
0.0419737704446318 -0.0436566364177577 -0.02911248215195152 0.0232877763040602 -0.005206464048535769 0.02037010593056008 
-0.001811828424925294 0.01168529448294673 0.003903613106127243 -0.007838504498660291 0.002500996773119791 -0.002710365633934227 
0.02280323643658435 0.02193683935774833 -0.03778406301786593 0.01177812087607657 -0.01546356654108508 0.00282840373194519 
0.006636031332763462 0.0205067227727526 -0.03638412915457542 0.02185056319561638 -0.001922750063615536 -0.006231534238129898 
0.01009881006292201 0.03793050041382998 -0.04646817032811523 -0.02797839882557901 0.03342274287065233 -0.01805403300043165 
-0.03095386397251857 0.03858675567078227 -0.04486275314651618 -0.025281469200171 0.02137746420859885 0.03092254984492106 
-0.04258898871617536 0.02097261190071873 0.01344038145777119 -0.01189399739930233 -0.002183015314544021 0.01753170292316887 
-0.0347297462610709 -0.001921320115219804 0.004983313329929513 -0.005300529160566717 -0.005309279457080925 0.0368328722037272 
0.006229417496443112 -0.002777108185919263 -0.04636217904808724 0.04760950646533901 -0.02135822094702132 0.01126391832631796 
-0.005657577596772941 0.01033878969420215 -0.04686660427469178 0.05192066313164603 -0.02186253660331575 -0.00278923771646941 
-0.01839257298065779 -0.003197966479377176 -0.04003756365330272 0.0499780578614013 0.001962123147071151 -0.006367106581585741 
-0.01102290288653539 0.01325513360246267 -0.00368943097140118 0.007184604899832781 -0.005723285070363646 -0.007255926700747781 
0.05458396579079879 -0.0226685009117429 -0.01698670014984711 -0.01056784703712247 0.007417044245246992 -0.01096258365388518 
0.02429468577241825 -0.02671119596190219 -0.01943823847897607 -0.009988220838298095 0.04283002772417974 -0.01144436681002571 
-0.005071331929688172 -0.01472531194568045 0.02147926347106903 -0.02443578893605997 0.03038955675868648 -0.003551955134187703 
-0.03559321234328077 -0.0009100525975381247 0.006350079709523505 -0.01150346995089725 0.01557774307674405 0.0177708166550595 
-0.007355273816417857 0.01476160056019299 -0.02824755485393905 0.02133095502647604 0.02751744400280765 -0.01760604470953205 
0.04228239440806617 0.02391905105978642 -0.005415403432157917 -0.01633375144849007 -0.01716750313438112 -0.03448308624899945 
-0.002274027135433336 0.009123196020465343 0.002203076271617141 0.02396647885966667 -0.01958017842402864 -0.02478034545315485 
-0.008382025972152004 0.02775063243968304 -0.002753134944033128 0.01555312946177321 -0.01794834895650771 -0.002852965997823034 
0.01242426160178065 0.0008792353305876637 -0.03641012397071343 -0.02351572575439601 0.0418918622847707 0.004494751769930118 
-0.006085764430093731 0.06016926601069409 -0.04544248606306348 -0.04388487054540707 -0.0006382473320713902 0.02626646911698155 
0.01158324949800958 0.008510281716013013 -0.01652994191819895 -0.009857971682574089 0.02884179409375572 -0.01663549536687712 
0.000651910071368573 0.01073279025007675 -0.01438275512849209 0.009203904433891526 -0.003732709515373651 -0.001976756932250546 
0.002539894250101395 -0.00738865658265035 -0.04303302773608134 0.03611010518170597 0.01996048569708038 -0.003584869018685312 
-0.03354486155633659 -0.03604569400777211 -0.001725883153031348 0.04302002499550625 0.0006250150032293344 0.006262357046442373 
-0.0160831508885357 -0.007932350260233111 -0.005895914278425031 0.01455759513146449 0.009959306420396306 -0.008868544399171245 
0.02458454258171908 -0.00790047982471628 -0.002981492581594724 -0.0006312989409591336 -0.002126147484050306 -0.01065777476468494 
0.09343269325212143 -0.06793656129991715 -0.02117516286700523 -0.02766913653310963 0.03216024771324786 -0.00491282625075418 
0.02526304668427704 -0.01419937569822038 -0.01051727817298879 -0.02241969680664092 0.0379943734533213 -0.01585522695566374 
-0.01398098205978492 0.04496066858916076 -0.002383207490490368 -0.02149039035959994 -0.007873774514540448 0.00214976060434805 
-0.0134980960531725 0.0296972708841308 -0.02244831935664912 0.005574583436964324 -0.009402391783723115 0.0002186719037091943 
-0.01045147956191653 0.02494166394892381 -0.05143395013308948 0.04825570488375473 -0.01275484957332558 -0.01204685402010377 
0.04075445207657863 -0.03475570178906021 -0.004382507314446299 0.03246350591769076 -0.01680288905887065 -0.03606020346667108 
0.0279717615384131 -0.02996252276745263 0.03416680900739627 -0.003774297570927246 -0.01353621584170361 -0.03492466604038109 
0.02275364456883379 0.004320380500275286 0.02387691362937507 -0.01975454267418906 -0.01602710060906249 -0.01230479271466107 
0.01037174320574176 -0.02216079212822222 -0.03051741644902322 -0.02811616869196764 -0.00474607973862826 0.05505629557392077 
-0.0007169308135445936 0.04210442448645414 -0.03773679302636014 -0.02565102236693059 0.01982182396551962 -0.006814655939575738 
0.02793578422040903 0.02999497537680267 -0.02168189503514189 -0.01164256432896448 3.715198762072031e-05 -0.01938663954988597 
0.01820713346883441 0.0005598686454834884 -0.02321612843077656 0.02988583251207999 0.001591454322660137 -0.01709884122092721 
0.02207037027241691 -0.001946987056551239 -0.03462892105222766 0.03348549523530455 -0.003223569625336195 -0.01947545586119943 
0.01700637362602495 -0.01446481383866975 -0.01648814010694465 0.02672698655884995 -0.009266586859486779 -0.00734322463000808 
-0.001452409587150355 -0.009313866671464433 -0.0004436366433774629 0.02248953333492357 -0.01228237757134145 0.006684977423418623 
-0.005199206330288622 0.02193363464350839 0.009982167052400867 -0.01225841816237812 -0.01161854074082551 0.008362624891399771 
-0.009755922798696927 -0.009283682791001897 -0.01991135318115144 -0.01520149753775079 0.04803303025425758 0.01043622891082669 
0.02780442295245488 -0.007183357880216604 -0.003129332613334888 -0.03440746366956161 0.03153359180667242 -0.00696724786710519 
0.01101732142209082 0.02722296966164973 -0.00166826878647912 -0.02327093162469491 -0.005441092176577985 -0.001222120900574775 
0.0001974695994838929 -0.01040904677082925 -0.01993300974664309 0.03582200393541914 -0.00647664625610891 0.004282359477986658 
0.01856109822055068 -0.04342746800523059 -0.02432322795530891 0.04478057483522523 -0.002988556093478971 -0.01303936468677716 
0.03457357085450313 -0.02879413000522705 -0.02805525729869562 0.06072510658247444 -0.02338671502242601 -0.03486083933239294 
0.02380927796339021 -0.01684592545893205 -0.002608974918435564 0.006700533189900565 -0.01094273230284031 0.0005706269207115781 
0.03586183462622167 -0.03344722416239049 0.006794375716270102 -0.01365172694772386 -0.0119331462449287 0.02088574661780785 
0.009815256410213212 -0.04504731392134519 -0.02394721793058216 -0.0274576674934319 0.01304622294197094 0.06466511667462606 
-0.003508764150476011 0.01179374285382325 -0.02014961314312641 -0.02289358833051638 0.04296308945424654 -0.00689575845181809 
0.04388235324933665 0.02412977916680702 -0.01455718548730194 -0.01639232375824588 -0.01398740032151224 -0.01981132076963392 
0.03726455646322661 0.004138572145157728 -0.003570399388383266 -0.003113771178498078 -0.007813265607219164 -0.02689352953747075 
0.0434063550866346 -0.01205928912753886 -0.002461236670971471 -0.008906271829902845 -0.009869082565232702 -0.01880786883087347 
0.02012865847602572 0.005057748311215861 -0.007064245278694301 0.008400970693773085 0.008045862298558998 -0.02897830869444893 
0.03827646981814827 -0.02338959166757928 0.01021584912164924 0.005271416430542579 -0.01977354107467747 -0.009134308843555743 
0.05690534930530395 -0.001996860040456277 0.01225811368115051 -0.01992621803666966 -0.02712041164393044 -0.009169854149552254 
0.01572076899993208 -0.02540224231763771 -0.02230493562629184 -0.01911711332696396 0.05270890092113133 -0.004253138626419461 
0.01821614134713541 0.003917342785413767 -0.00193516077852112 -0.0118063907962278 -0.03421757610576683 0.03465815342528634 
0.01506727117040583 0.01683719405373835 0.002520384881206863 -0.004100652010420937 -0.02387692908889847 -0.004561139142176321 
0.004479059199205359 0.0009697652651763799 -0.001272363886989124 0.005115836083256805 -0.01763870703292869 0.003624398226461624 
0.001251518665267873 -0.01415692403904956 -0.003386490856310151 -0.001490520555721843 -0.01820994347048627 0.01646848420856009 
0.0328873845589446 -0.01203410948861497 -0.03148106133136139 -0.0258481027594386 0.0372062938138713 -0.0003787169908777383 
-0.02606672799979147 -0.02269648224520403 -0.0104144451628299 0.01058940251668066 0.02829560939298981 0.01205476716143209 
-0.02492493735856034 -0.02268792657806095 -0.001573014115510771 0.009847799402620025 0.02633326630888812 0.006895366452103514 
-0.01659195835591841 -0.02829565797847129 -0.01383376255510624 -0.00570382063566411 -0.002022593860235975 0.0579688578842602 
-0.01519575970301237 -0.003090414072028536 -0.004320873334550981 -0.002603745115093608 0.01326840323777636 0.004992039146681228 
0.01729193955741639 0.005486768750493838 0.0004773983538343894 -0.01600067951766713 -0.003605347004093607 -0.005000118063422246 
0.00576569276202049 0.03024974878666025 -0.01389375603634608 -0.003094602577131724 -0.02054389676293913 0.002330296565215422 
0.007542889221338404 0.002489666273057759 -0.0181890543970998 -0.01633993713785592 -0.02175958537310473 0.03353826198565338 
-0.002932657033647478 0.01646595955827478 0.001043546709090311 -0.0170441721413001 -0.006126256637285827 0.01608083713350909 
0.008039962093076343 -0.006025069204792974 -0.01673631626278922 0.02220597349211275 -0.005224247112693487 0.0060256265063778 
0.01484467166718131 0.0005552335188043862 -0.01131327441513209 1.579310026112531e-05 -0.008989733230402227 0.004515289554748982 
0.005495968348789856 -0.009114221900303124 -0.01199440850814971 -0.008933064566634641 -0.01197837776831685 0.0241435535547204 
-0.01785951846769062 0.004700411706856971 -0.009241657335902787 0.01119133797664649 0.02178955877910288 -0.0068202808444566 
-0.008228978680599066 0.02321499920341417 -0.01284233614435352 -0.01360930364103445 0.01178656670807589 0.007724932006621069 
0.01574908523433064 -0.004002598509062779 -0.0005236290236574194 -0.008465112335232247 0.003629216375093306 -0.006402488946189512 
0.02607462944359456 0.009701604324130964 0.009410510007204472 -0.01061526080162103 -0.01023128662391071 -0.02550197165125666 
-0.01239587214183041 0.006218939273886708 -0.02099489079291546 0.002740492301377218 0.02361547228997823 0.005546537663797554 
-0.01808737625681568 0.01576690113645742 -0.009014868145051716 -0.009604256507630837 -0.0023265972218713 0.02289832465402016 
0.01678568986704009 -0.00759232127305849 -0.02216503832489106 0.01437064832901199 -0.002840625862479305 0.008926394197157848 
-0.02442657357287214 -0.0001589134294881916 -0.01494209932748559 0.01278852222735974 0.02045485595696016 0.003747555948143058 
-0.04857556880133552 0.001340401376358248 0.007518487094905473 0.007691914319774733 0.01287516485042331 0.01629470534104678 
-0.02984634552829264 -0.004612724029155323 0.01961202601682228 -0.003185219855342967 -0.008335028426620362 0.02276562304769186 
-0.02930149965442324 0.006511334271314083 0.04079906096487654 -0.03323839970205166 -0.0002652272820631698 -0.002931394679085053 
-0.002157855114189077 0.01787166126032825 -0.004337408915695902 -0.01571916473895648 -0.00152459625430763 0.009726037032851393 
-0.007826894322734191 0.03602845677390568 -0.01362897421899453 0.02435304426098231 -0.02243003800568897 -0.01476299246687724 
-0.01443807933316819 -0.02048243072521991 -0.0144879155382683 0.01636264203779193 -0.01113675717357096 0.03881742766682472 
0.02058700737293543 -0.03691233541878657 -0.009084098133159677 0.02422614322695578 -0.02208456669112751 0.01704033322040661 
0.01991482153724066 -0.01059187664145359 -0.005888952725558365 0.01227759844288213 -0.005468061918243144 -0.006051884089081552 
-0.01268481551612636 -0.005386340778650266 -0.009661620009066179 0.01369215213623233 0.01342055875092439 -7.823540771023904e-05 
-0.02996272604736024 -0.0123623140228607 0.01859677955044921 0.001168716262771276 0.001617781068860512 0.01735138733349437 
-0.05149371963131857 0.009810400814862763 0.007421258281549877 0.004504256579625401 -0.01393821946912813 0.02655639853853497 
-0.03647233304355701 0.009007473771331324 -0.009923810342682998 0.004865516139555628 -0.004040079289852989 0.02745372003381036 
-0.0203135837895422 -0.008085153075837084 -0.02107491571586785 0.04147179774020977 -0.007580873959301663 0.01920317072440073 
-0.02304838267653746 -0.01119836590883875 -0.02680872065197718 0.03237891614648536 0.03565476511438948 0.0001593955378948381 
-0.04400339607657953 0.01601248333179263 -0.03685884092437728 0.006775785924991606 0.09151026551192668 -0.02349453185628372 
0.03818455625803559 0.019300024387513 -0.01775260226351342 -0.01314862210984616 0.02084823024960277 -0.04996927013895873 
0.007602642869891625 0.05555328072365217 0.001673117202789685 -0.02157114608763742 -0.02128196098897255 -0.02263253082427112 
-0.05546747282199294 -0.007068994850349146 0.02873008714862081 0.003158490905703415 -0.01348136198676252 0.03847974327088243 
-0.05305361585256683 -0.02746146424790221 0.03416272192831154 -0.0180403681577277 -0.006938519478194992 0.042576906511955 
-0.01162656621620209 -0.001868080799878829 -0.02419125692820965 0.02281171999736587 -0.001651157576811986 0.01609979547917621 
